{"learner":{"attributes":{"scikit_learn":"{\"_estimator_type\": \"classifier\"}"},"feature_names":["lengthofresidence","is_business","ownrent","householdincome","federalIncentive","solarPotential.financialAnalyses.financialDetails.costOfElectricityWithoutSolar","presenceofchildren","politicalparty","potential_age","maritalstatus","solarPotential.financialAnalyses.financialDetails.federalIncentive","solarPotential.financialAnalyses.leasingSavings.annualLeasingCost","solarPotential.financialAnalyses.cashPurchaseSavings.paybackYears","solarPotential.financialAnalyses.leasingSavings.savings.savingsYear20","demo_gender","education","solarPotential.financialAnalyses.leasingSavings.leasesAllowed","solarPotential.financialAnalyses.leasingSavings.savings.savingsLifetime","solarPotential.financialAnalyses.leasingSavings.savings.savingsYear1","solarPotential.financialAnalyses.cashPurchaseSavings.outOfPocketCost","solarPotential.financialAnalyses.financialDetails.netMeteringAllowed","solarPotential.financialAnalyses.leasingSavings.leasesSupported"],"feature_types":["int","i","int","int","float","float","int","int","float","int","float","float","float","float","int","int","int","float","float","float","int","int"],"gradient_booster":{"model":{"gbtree_model_param":{"num_parallel_tree":"1","num_trees":"100"},"iteration_indptr":[0,1,2,3,4,5,6,7,8,9,10,11,12,13,14,15,16,17,18,19,20,21,22,23,24,25,26,27,28,29,30,31,32,33,34,35,36,37,38,39,40,41,42,43,44,45,46,47,48,49,50,51,52,53,54,55,56,57,58,59,60,61,62,63,64,65,66,67,68,69,70,71,72,73,74,75,76,77,78,79,80,81,82,83,84,85,86,87,88,89,90,91,92,93,94,95,96,97,98,99,100],"tree_info":[0,0,0,0,0,0,0,0,0,0,0,0,0,0,0,0,0,0,0,0,0,0,0,0,0,0,0,0,0,0,0,0,0,0,0,0,0,0,0,0,0,0,0,0,0,0,0,0,0,0,0,0,0,0,0,0,0,0,0,0,0,0,0,0,0,0,0,0,0,0,0,0,0,0,0,0,0,0,0,0,0,0,0,0,0,0,0,0,0,0,0,0,0,0,0,0,0,0,0,0],"trees":[{"base_weights":[4.4814083E-3,1.2176247E0,-7.6751655E-1,4.870072E-1,1.5103234E0,6.210084E-1,-1.1587715E0,7.539308E-1,-1.0297991E0,1.6338409E0,9.795355E-1,1.4073057E0,-1.0296228E0,1.5993842E0,-1.3342001E0,2.6851138E-1,1.0739963E0,-1.3167685E-1,-1.4335024E0,1.6433316E0,-2.4883063E-1,1.1386535E0,-6.810105E-1,1.5947846E0,-1.1553205E0,1.2737392E0,-1.6586236E0,1.6404539E0,-3.5113236E-1,-7.329049E-1,-1.1678905E0,-7.022267E-1,1.5240717E0,1.2714641E0,4.5256174E-1,7.74013E-1,-1.5162523E0,-1.5988789E0,-5.612157E-2,1.6468178E0,-1.2807882E-1,2.7008078E-1,-1.1367035E0,3.2171097E-1,1.2220945E0,2.7502578E-1,-1.2441288E0,-1.2103393E0,1.6360927E0,-1.6147861E0,-3.924276E-1,-2.852336E-1,1.3811656E0,-7.120564E-1,-1.4964836E0,5.004415E-1,2.2797707E-1,-1.5356938E0,-8.6489224E-1,2.8128797E-1,-3.1530842E-1,4.8487505E-1,-9.143581E-2,3.8894054E-1,1.1966667E-1,2.1788573E-1,-7.990378E-2,-4.859927E-1,4.274085E-1,-5.056605E-1,-6.809623E-2,-5.251774E-1,-2.2705448E-1,3.114064E-1,-3.4101105E-1,5.0140655E-1,3.9974132E-1,-4.3566558E-1,-1.2807882E-1,-3.3454028E-1,2.3740771E-1,3.7836453E-1,-7.464919E-2,-1.6255169E-1,2.1092817E-1,1.5755847E-1,-4.735266E-1,-4.3130186E-1,-1.6926132E-1,-4.859927E-1,4.9929187E-1,-5.168485E-1,5.0085364E-3,-2.2705448E-1,1.370099E-1,-2.6684168E-1,9.4974734E-2,5.0085364E-3,4.2559618E-1,-1.7557561E-1,-5.034589E-1,-1.2807882E-1,2.7685875E-1,-6.10198E-1,-3.5218617E-1,3.7362352E-2,-3.254696E-1],"categories":[],"categories_nodes":[],"categories_segments":[],"categories_sizes":[],"default_left":[0,1,0,0,0,0,0,0,0,0,0,0,0,0,0,0,1,0,1,0,0,0,0,0,0,0,0,0,0,0,1,0,0,1,0,0,0,0,1,0,0,0,0,0,0,0,0,0,0,0,1,0,0,0,0,0,0,0,0,0,0,0,0,0,0,0,0,0,0,0,0,0,0,0,0,0,0,0,0,0,0,0,0,0,0,0,0,0,0,0,0,0,0,0,0,0,0,0,0,0,0,0,0,0,0,0,0],"id":0,"left_children":[1,3,5,7,9,11,13,15,17,19,21,23,25,27,29,31,33,35,37,39,41,43,45,47,49,51,53,55,-1,-1,57,59,61,63,65,67,69,71,73,75,-1,-1,77,79,81,83,85,87,89,91,93,95,97,-1,99,-1,101,103,105,-1,-1,-1,-1,-1,-1,-1,-1,-1,-1,-1,-1,-1,-1,-1,-1,-1,-1,-1,-1,-1,-1,-1,-1,-1,-1,-1,-1,-1,-1,-1,-1,-1,-1,-1,-1,-1,-1,-1,-1,-1,-1,-1,-1,-1,-1,-1,-1],"loss_changes":[4.7199023E3,4.18386E2,1.6738876E3,2.2833809E2,9.01084E1,8.810258E2,1.1649082E3,7.405859E1,3.0460129E1,2.0657715E1,7.120708E1,2.2258264E2,3.1975592E2,1.8319305E1,4.1389868E2,2.3445E2,3.477191E1,3.5426163E1,1.3171173E1,8.842285E0,7.70871E0,1.621402E1,1.3227777E1,5.163867E1,1.0548595E1,8.364746E0,1.646048E1,5.1908264E0,0E0,0E0,2.1789551E2,6.3144676E1,1.4620895E1,4.23999E0,1.4167286E1,2.9062077E1,2.048626E0,5.3101807E0,9.783492E0,6.458496E0,0E0,0E0,3.067894E-1,1.703399E1,1.3013184E1,3.7696888E0,9.845243E0,1.868267E-1,4.153296E1,3.4817429E0,4.4650345E0,1.6987108E0,2.2626343E0,0E0,2.2768555E1,0E0,2.1674788E0,1.5754346E2,2.3542072E2,0E0,0E0,0E0,0E0,0E0,0E0,0E0,0E0,0E0,0E0,0E0,0E0,0E0,0E0,0E0,0E0,0E0,0E0,0E0,0E0,0E0,0E0,0E0,0E0,0E0,0E0,0E0,0E0,0E0,0E0,0E0,0E0,0E0,0E0,0E0,0E0,0E0,0E0,0E0,0E0,0E0,0E0,0E0,0E0,0E0,0E0,0E0,0E0],"parents":[2147483647,0,0,1,1,2,2,3,3,4,4,5,5,6,6,7,7,8,8,9,9,10,10,11,11,12,12,13,13,14,14,15,15,16,16,17,17,18,18,19,19,20,20,21,21,22,22,23,23,24,24,25,25,26,26,27,27,30,30,31,31,32,32,33,33,34,34,35,35,36,36,37,37,38,38,39,39,42,42,43,43,44,44,45,45,46,46,47,47,48,48,49,49,50,50,51,51,52,52,54,54,56,56,57,57,58,58],"right_children":[2,4,6,8,10,12,14,16,18,20,22,24,26,28,30,32,34,36,38,40,42,44,46,48,50,52,54,56,-1,-1,58,60,62,64,66,68,70,72,74,76,-1,-1,78,80,82,84,86,88,90,92,94,96,98,-1,100,-1,102,104,106,-1,-1,-1,-1,-1,-1,-1,-1,-1,-1,-1,-1,-1,-1,-1,-1,-1,-1,-1,-1,-1,-1,-1,-1,-1,-1,-1,-1,-1,-1,-1,-1,-1,-1,-1,-1,-1,-1,-1,-1,-1,-1,-1,-1,-1,-1,-1,-1],"split_conditions":[1.129E3,5.937E3,-2.79E2,2.9138E4,1E0,1E0,2.9138E4,1E0,1E0,1E0,2.9376E4,1E0,2.8896E4,8E0,2.2E1,2.5037E4,3.65E2,1E0,4.619E3,1.075E1,2.9376E4,2.9352E4,1.3266E4,2.3432E4,1.775E1,-9.014E3,3.2E1,1E0,-3.5113236E-1,-7.329049E-1,9.13E2,6.74E2,1E0,8.1E1,9.62E2,2.9199E4,3E0,3E0,5.3E1,7E0,-1.2807882E-1,2.7008078E-1,1E0,1E0,1.5867E4,4.9E1,6.479E3,1E0,1E0,1E0,5.6E1,1E0,2.2796E4,-7.120564E-1,3E0,5.004415E-1,4E0,3E0,2E0,2.8128797E-1,-3.1530842E-1,4.8487505E-1,-9.143581E-2,3.8894054E-1,1.1966667E-1,2.1788573E-1,-7.990378E-2,-4.859927E-1,4.274085E-1,-5.056605E-1,-6.809623E-2,-5.251774E-1,-2.2705448E-1,3.114064E-1,-3.4101105E-1,5.0140655E-1,3.9974132E-1,-4.3566558E-1,-1.2807882E-1,-3.3454028E-1,2.3740771E-1,3.7836453E-1,-7.464919E-2,-1.6255169E-1,2.1092817E-1,1.5755847E-1,-4.735266E-1,-4.3130186E-1,-1.6926132E-1,-4.859927E-1,4.9929187E-1,-5.168485E-1,5.0085364E-3,-2.2705448E-1,1.370099E-1,-2.6684168E-1,9.4974734E-2,5.0085364E-3,4.2559618E-1,-1.7557561E-1,-5.034589E-1,-1.2807882E-1,2.7685875E-1,-6.10198E-1,-3.5218617E-1,3.7362352E-2,-3.254696E-1],"split_indices":[11,13,18,5,14,3,5,3,14,9,5,14,5,0,8,5,13,2,13,12,5,5,19,5,12,13,8,14,0,0,13,11,14,8,11,5,9,15,8,0,0,0,6,2,13,8,13,1,16,0,8,6,5,0,0,0,3,2,9,0,0,0,0,0,0,0,0,0,0,0,0,0,0,0,0,0,0,0,0,0,0,0,0,0,0,0,0,0,0,0,0,0,0,0,0,0,0,0,0,0,0,0,0,0,0,0,0],"split_type":[0,0,0,0,0,0,0,0,0,0,0,0,0,0,0,0,0,0,0,0,0,0,0,0,0,0,0,0,0,0,0,0,0,0,0,0,0,0,0,0,0,0,0,0,0,0,0,0,0,0,0,0,0,0,0,0,0,0,0,0,0,0,0,0,0,0,0,0,0,0,0,0,0,0,0,0,0,0,0,0,0,0,0,0,0,0,0,0,0,0,0,0,0,0,0,0,0,0,0,0,0,0,0,0,0,0,0],"sum_hessian":[5.0377026E3,1.9588787E3,3.0788242E3,5.6105914E2,1.3978195E3,6.7669916E2,2.402125E3,4.7752795E2,8.353118E1,1.1322579E3,2.6556155E2,4.584558E2,2.1824332E2,1.4316182E2,2.2589631E3,1.9048006E2,2.870479E2,2.6314735E1,5.7216446E1,1.1267053E3,5.552651E0,2.426267E2,2.2934862E1,4.275541E2,3.0901709E1,4.6593983E1,1.7164934E2,1.4147188E2,1.6899372E0,2.9284198E2,1.9661212E3,1.0767314E2,8.280692E1,2.1703622E2,7.001168E1,1.6175114E1,1.0139623E1,5.0939537E1,6.2769094E0,1.1250154E3,1.6899372E0,2.414196E0,3.1384547E0,2.2934862E1,2.1969183E2,8.691106E0,1.4243756E1,5.7940702E0,4.2176004E2,1.858931E1,1.23124E1,2.8970351E0,4.369695E1,2.9211771E1,1.4243756E2,1.3857484E2,2.8970351E0,8.8625134E2,1.0798699E3,1.858931E1,8.908383E1,7.894421E1,3.8627136E0,2.1051788E2,6.518329E0,5.0698116E1,1.9313568E1,3.1384547E0,1.3036658E1,8.691106E0,1.4485176E0,4.224843E1,8.691106E0,3.1384547E0,3.1384547E0,1.0395527E3,8.546254E1,1.4485176E0,1.6899372E0,5.311231E0,1.762363E1,2.1413919E2,5.552651E0,2.8970351E0,5.7940702E0,2.1727765E0,1.207098E1,3.3798745E0,2.414196E0,3.1384547E0,4.1862158E2,1.7382212E1,1.207098E0,8.691106E0,3.621294E0,1.207098E0,1.6899372E0,1.207098E0,4.248985E1,2.4383379E1,1.18054184E2,1.6899372E0,1.207098E0,3.708205E2,5.1543085E2,1.9651555E2,8.833543E2],"tree_param":{"num_deleted":"0","num_feature":"22","num_nodes":"107","size_leaf_vector":"1"}},{"base_weights":[2.1028342E-2,1.1008387E0,-4.7401753E-1,1.3206695E0,4.424014E-1,-6.659718E-1,1.0109581E0,1.0649609E-1,1.361085E0,-7.170193E-1,8.623719E-1,-9.076988E-1,4.1925687E-1,1.0621302E0,6.39755E-3,-8.638937E-1,9.643567E-1,1.38279E0,5.1578116E-1,-8.153721E-1,1.0710636E0,9.882404E-1,1.1999675E-1,-5.101455E-1,-7.9584676E-1,1.3731568E0,-9.724529E-1,7.967128E-1,1.1689594E0,-9.4953126E-1,4.9862874E-1,-1.3667145E0,-3.467385E-1,1.0375055E0,-4.992111E-2,1.3974472E0,-5.6431912E-2,8.8287824E-1,-5.681935E-1,-1.082362E0,-5.787174E-1,4.3689728E-1,3.4472317E-2,2.6753366E-1,1.0419497E0,7.7501833E-1,-2.4327277E-1,-1.0707475E0,-5.783556E-1,-1.2726365E0,1.4194893E0,-5.2168787E-1,-7.636819E-1,4.44468E-1,9.076182E-1,1.2288384E0,9.072769E-1,1.0956887E-2,-4.075146E-1,-2.091519E-1,6.589471E-1,-4.4904724E-1,-1.3078389E-1,2.4620342E-1,-2.0276003E-1,3.3491775E-1,-3.6292627E-2,1.5640538E-2,4.2132342E-1,-3.2083327E-1,3.5165983E-1,3.163528E-2,2.8903368E-1,-5.0533617E-1,1.5585997E-2,-2.1874313E-1,-4.1442075E-1,-2.4331191E-1,4.1210096E-2,2.1762379E-1,-2.4878064E-1,3.200897E-1,1.16756074E-1,2.912377E-1,-1.2564802E-1,-1.7852814E-1,1.4952686E-1,-4.010231E-1,-2.3061109E-1,-8.933492E-2,-2.606896E-1,-4.6073633E-1,-4.5365296E-2,4.285694E-1,1.1625111E-3,2.3260562E-2,-3.1941238E-1,1.7881116E-1,-2.743637E-1,2.944952E-1,4.2341873E-3,3.9148283E-1,3.1499568E-1,2.7875364E-1,-1.1069319E-2,2.9935926E-1,5.8594942E-2],"categories":[],"categories_nodes":[],"categories_segments":[],"categories_sizes":[],"default_left":[0,0,1,0,0,1,0,0,0,0,0,0,0,0,0,0,1,0,0,0,0,0,0,0,1,0,0,0,0,0,0,1,0,0,0,0,0,0,0,0,1,0,0,0,1,0,0,0,0,0,0,0,0,0,0,0,0,0,0,0,0,0,0,0,0,0,0,0,0,0,0,0,0,0,0,0,0,0,0,0,0,0,0,0,0,0,0,0,0,0,0,0,0,0,0,0,0,0,0,0,0,0,0,0,0,0,0],"id":1,"left_children":[1,3,5,7,9,11,13,15,17,19,21,23,25,27,29,31,33,35,37,39,41,43,45,-1,47,49,51,53,55,57,59,61,63,65,-1,67,69,71,73,75,77,-1,-1,79,81,83,85,87,89,91,93,-1,95,97,99,101,103,-1,-1,-1,105,-1,-1,-1,-1,-1,-1,-1,-1,-1,-1,-1,-1,-1,-1,-1,-1,-1,-1,-1,-1,-1,-1,-1,-1,-1,-1,-1,-1,-1,-1,-1,-1,-1,-1,-1,-1,-1,-1,-1,-1,-1,-1,-1,-1,-1,-1],"loss_changes":[2.571187E3,2.182655E2,9.4076086E2,5.54541E1,1.8562495E2,7.6666797E2,1.9419983E1,3.212044E1,1.940332E1,1.8737026E1,2.5986526E1,2.1051575E2,7.086676E2,9.264526E0,9.566017E0,4.2491302E0,1.8617649E0,2.2616821E1,1.2058691E1,5.4929886E0,1.9427342E0,8.962357E0,1.0096447E1,0E0,1.2468225E2,4.061035E1,3.3439774E1,3.7507248E0,2.869049E0,2.836371E0,3.0304587E0,4.215355E-1,4.5098476E0,1.9005775E0,0E0,9.835693E0,1.5855682E1,1.2818546E0,5.5949597E0,3.678238E0,9.010195E0,0E0,0E0,9.592398E0,3.2071533E0,3.9342518E0,7.4844284E0,7.3250854E1,9.53208E1,1.5310335E0,3.9973755E0,0E0,4.377456E1,6.1938004E0,5.272293E0,1.4077454E0,1.0923615E0,0E0,0E0,0E0,1.7440977E0,0E0,0E0,0E0,0E0,0E0,0E0,0E0,0E0,0E0,0E0,0E0,0E0,0E0,0E0,0E0,0E0,0E0,0E0,0E0,0E0,0E0,0E0,0E0,0E0,0E0,0E0,0E0,0E0,0E0,0E0,0E0,0E0,0E0,0E0,0E0,0E0,0E0,0E0,0E0,0E0,0E0,0E0,0E0,0E0,0E0,0E0],"parents":[2147483647,0,0,1,1,2,2,3,3,4,4,5,5,6,6,7,7,8,8,9,9,10,10,11,11,12,12,13,13,14,14,15,15,16,16,17,17,18,18,19,19,20,20,21,21,22,22,24,24,25,25,26,26,27,27,28,28,29,29,30,30,31,31,32,32,33,33,35,35,36,36,37,37,38,38,39,39,40,40,43,43,44,44,45,45,46,46,47,47,48,48,49,49,50,50,52,52,53,53,54,54,55,55,56,56,60,60],"right_children":[2,4,6,8,10,12,14,16,18,20,22,24,26,28,30,32,34,36,38,40,42,44,46,-1,48,50,52,54,56,58,60,62,64,66,-1,68,70,72,74,76,78,-1,-1,80,82,84,86,88,90,92,94,-1,96,98,100,102,104,-1,-1,-1,106,-1,-1,-1,-1,-1,-1,-1,-1,-1,-1,-1,-1,-1,-1,-1,-1,-1,-1,-1,-1,-1,-1,-1,-1,-1,-1,-1,-1,-1,-1,-1,-1,-1,-1,-1,-1,-1,-1,-1,-1,-1,-1,-1,-1,-1,-1],"split_conditions":[2.9138E4,1E0,4.24E2,2.2796E4,1E0,1.468E3,5.94E2,4E0,1E0,1E0,2.5638E4,2.2E1,3.6469E4,7.1E1,4.7E1,-1.429E3,7.3E1,1.775E1,2.5037E4,2.3392E4,5.796E3,1.4991E4,1.7013E4,-5.101455E-1,-1.4E2,2.9746E4,2.6E1,4E0,5.5E0,3E0,1.5867E4,5.5E1,-1.133E3,3.99E2,-4.992111E-2,2.25E0,2.5037E4,-7.076E3,5E0,6.5E1,6.3E1,4.3689728E-1,3.4472317E-2,1.4E1,8.1E1,5.375E3,6.5E1,3E0,1E1,3E0,2E0,-5.2168787E-1,5E0,6.7E1,5.75E0,1.3E1,6.74E2,1.0956887E-2,-4.075146E-1,-2.091519E-1,1E0,-4.4904724E-1,-1.3078389E-1,2.4620342E-1,-2.0276003E-1,3.3491775E-1,-3.6292627E-2,1.5640538E-2,4.2132342E-1,-3.2083327E-1,3.5165983E-1,3.163528E-2,2.8903368E-1,-5.0533617E-1,1.5585997E-2,-2.1874313E-1,-4.1442075E-1,-2.4331191E-1,4.1210096E-2,2.1762379E-1,-2.4878064E-1,3.200897E-1,1.16756074E-1,2.912377E-1,-1.2564802E-1,-1.7852814E-1,1.4952686E-1,-4.010231E-1,-2.3061109E-1,-8.933492E-2,-2.606896E-1,-4.6073633E-1,-4.5365296E-2,4.285694E-1,1.1625111E-3,2.3260562E-2,-3.1941238E-1,1.7881116E-1,-2.743637E-1,2.944952E-1,4.2341873E-3,3.9148283E-1,3.1499568E-1,2.7875364E-1,-1.1069319E-2,2.9935926E-1,5.8594942E-2],"split_indices":[5,14,18,5,3,11,18,2,3,6,5,8,5,8,8,13,8,12,5,5,4,19,19,0,18,5,8,0,12,3,13,8,13,13,0,12,5,13,3,8,8,0,0,0,8,13,8,3,0,15,7,0,0,8,12,0,11,0,0,0,6,0,0,0,0,0,0,0,0,0,0,0,0,0,0,0,0,0,0,0,0,0,0,0,0,0,0,0,0,0,0,0,0,0,0,0,0,0,0,0,0,0,0,0,0,0,0],"split_type":[0,0,0,0,0,0,0,0,0,0,0,0,0,0,0,0,0,0,0,0,0,0,0,0,0,0,0,0,0,0,0,0,0,0,0,0,0,0,0,0,0,0,0,0,0,0,0,0,0,0,0,0,0,0,0,0,0,0,0,0,0,0,0,0,0,0,0,0,0,0,0,0,0,0,0,0,0,0,0,0,0,0,0,0,0,0,0,0,0,0,0,0,0,0,0,0,0,0,0,0,0,0,0,0,0,0,0],"sum_hessian":[4.807976E3,1.5109716E3,3.2970044E3,1.1320208E3,3.7895084E2,2.9200923E3,3.7691205E2,3.658423E1,1.0954365E3,1.0057744E2,2.783734E2,2.388283E3,5.318095E2,3.585883E2,1.832374E1,1.7162931E1,1.9421297E1,1.0673932E3,2.8043354E1,9.584928E1,4.728155E0,2.377347E2,4.0638714E1,2.9353806E2,2.0947449E3,3.1554398E2,2.1626552E2,1.0533665E2,2.5325165E2,5.9124794E0,1.241126E1,7.869147E0,9.293785E0,1.8318733E1,1.1025652E0,1.056661E3,1.0732173E1,2.1087437E1,6.9559183E0,4.33589E1,5.2490387E1,2.9973426E0,1.7308123E0,1.6902802E1,2.208319E2,1.4093275E1,2.6545437E1,9.235229E2,1.1712219E3,4.975113E0,3.1056888E2,4.47255E1,1.7154002E2,2.6422909E1,7.8913734E1,2.0308505E2,5.01666E1,1.9998848E0,3.9125943E0,1.0713644E0,1.1339896E1,6.370476E0,1.4986713E0,1.7154832E0,7.5783014E0,1.7184856E1,1.1338763E0,5.485367E0,1.0511757E3,5.953253E0,4.77892E0,2.1969557E0,1.889048E1,1.871326E0,5.0845923E0,2.1455055E1,2.1903843E1,3.953219E1,1.2958198E1,1.2163537E1,4.739265E0,2.1207018E2,8.761709E0,1.2268283E1,1.8249925E0,1.8138943E1,8.406494E0,4.8924326E2,4.3427966E2,5.969317E2,5.742902E2,3.7302675E0,1.2448454E0,3.0858142E2,1.9874487E0,4.5403202E1,1.2613682E2,2.4276768E1,2.1461406E0,7.278445E1,6.129293E0,1.3804773E2,6.5037315E1,4.9044804E1,1.1217966E0,5.88537E0,5.454526E0],"tree_param":{"num_deleted":"0","num_feature":"22","num_nodes":"107","size_leaf_vector":"1"}},{"base_weights":[2.7049238E-2,9.4542843E-1,-3.5210964E-1,1.1685181E0,3.4934232E-1,-4.944054E-1,8.293843E-1,8.244223E-2,1.2098246E0,-5.102988E-1,6.931002E-1,-6.656582E-1,3.566815E-1,5.153948E-1,9.7097397E-1,-7.421263E-1,7.2923887E-1,1.2244865E0,-9.206647E-2,-5.740074E-1,3.3529738E-1,8.0481595E-1,9.518498E-2,-1.4172704E0,-5.722775E-1,1.198745E0,-7.594003E-1,5.9978753E-1,-7.78457E-1,1.1579447E0,8.7588453E-1,-8.5085434E-1,9.0753324E-2,-1.23404354E-1,8.6933357E-1,1.2394577E0,1.9658461E-1,-9.191739E-1,7.0895517E-1,-6.1181825E-1,6.503427E-1,2.000188E-1,8.5438275E-1,6.1277634E-1,-1.686261E-1,-9.481601E-2,-4.262502E-1,-5.950013E-1,4.8242128E-1,-4.5489454E-1,1.2639415E0,-1.2934965E0,-6.066473E-1,2.9423505E-1,7.1925634E-1,3.8224682E-1,-4.8892313E-1,4.2498136E-1,3.5398817E-1,9.9215245E-1,6.9695395E-1,-3.625981E-1,-1.5465964E-1,3.2175386E-1,1.1613925E-2,4.2200234E-2,3.7491462E-1,-7.5285986E-2,3.1104767E-1,-4.460753E-1,2.372124E-1,-4.0533334E-2,3.3208206E-1,-2.2421896E-1,-7.935169E-2,2.7948818E-1,2.364417E-2,1.8146092E-1,-2.4215955E-1,2.2053693E-1,3.116392E-1,-2.1081097E-1,2.3286459E-1,-1.1689213E-1,2.323216E-1,-3.0124658E-1,-1.4812529E-1,3.8371658E-1,-4.6925577E-3,-4.1375092E-1,-2.6526895E-1,1.3392703E-1,-2.0961718E-1,-1.8786715E-1,1.5303633E-1,2.3349057E-1,-2.6845533E-1,2.2055791E-1,-8.708015E-2,-5.651823E-2,2.4012886E-1,3.039699E-1,-1.7901858E-2,-4.5749912E-1,2.3659201E-1],"categories":[],"categories_nodes":[],"categories_segments":[],"categories_sizes":[],"default_left":[0,0,1,0,0,1,0,0,0,0,0,0,0,0,0,0,0,0,1,0,0,0,0,0,0,0,0,0,0,0,0,0,0,0,0,0,0,0,0,0,0,0,0,0,0,0,0,0,0,0,0,0,0,0,0,0,0,0,0,0,0,0,0,0,0,0,0,0,0,0,0,0,0,0,0,0,0,0,0,0,0,0,0,0,0,0,0,0,0,0,0,0,0,0,0,0,0,0,0,0,0,0,0,0,0],"id":2,"left_children":[1,3,5,7,9,11,13,15,17,19,21,23,25,27,29,31,33,35,37,39,-1,41,43,45,47,49,51,53,55,57,59,61,-1,-1,63,65,67,69,71,73,75,77,79,81,83,-1,-1,85,-1,-1,87,89,91,93,95,97,-1,99,-1,101,103,-1,-1,-1,-1,-1,-1,-1,-1,-1,-1,-1,-1,-1,-1,-1,-1,-1,-1,-1,-1,-1,-1,-1,-1,-1,-1,-1,-1,-1,-1,-1,-1,-1,-1,-1,-1,-1,-1,-1,-1,-1,-1,-1,-1],"loss_changes":[1.5265376E3,1.6994556E2,5.220813E2,4.1700073E1,1.0386957E2,4.0397192E2,1.4344528E1,1.9320513E1,1.7245117E1,1.107946E1,1.666642E1,1.6106384E2,4.376036E2,1.2031181E1,3.0572205E0,2.0717716E0,3.591322E0,1.3415527E1,7.8901334E0,4.912037E0,0E0,6.1563263E0,5.646369E0,5.484619E-1,1.0268274E2,4.886548E1,1.5567398E1,3.4383278E0,7.4607024E0,6.942444E-1,2.551979E0,1.1442833E0,0E0,0E0,3.0544262E0,9.682617E0,5.4986935E0,6.8165674E0,2.2036898E0,4.2806244E0,4.7411466E-1,7.5399704E0,3.5199585E0,3.5384774E0,6.0695543E0,0E0,0E0,8.371356E1,0E0,0E0,5.039612E0,3.1246948E-1,1.5606781E1,6.2406936E0,7.481304E0,1.100653E0,0E0,1.0083189E0,0E0,2.103485E0,1.439711E1,0E0,0E0,0E0,0E0,0E0,0E0,0E0,0E0,0E0,0E0,0E0,0E0,0E0,0E0,0E0,0E0,0E0,0E0,0E0,0E0,0E0,0E0,0E0,0E0,0E0,0E0,0E0,0E0,0E0,0E0,0E0,0E0,0E0,0E0,0E0,0E0,0E0,0E0,0E0,0E0,0E0,0E0,0E0,0E0],"parents":[2147483647,0,0,1,1,2,2,3,3,4,4,5,5,6,6,7,7,8,8,9,9,10,10,11,11,12,12,13,13,14,14,15,15,16,16,17,17,18,18,19,19,21,21,22,22,23,23,24,24,25,25,26,26,27,27,28,28,29,29,30,30,31,31,34,34,35,35,36,36,37,37,38,38,39,39,40,40,41,41,42,42,43,43,44,44,47,47,50,50,51,51,52,52,53,53,54,54,55,55,57,57,59,59,60,60],"right_children":[2,4,6,8,10,12,14,16,18,20,22,24,26,28,30,32,34,36,38,40,-1,42,44,46,48,50,52,54,56,58,60,62,-1,-1,64,66,68,70,72,74,76,78,80,82,84,-1,-1,86,-1,-1,88,90,92,94,96,98,-1,100,-1,102,104,-1,-1,-1,-1,-1,-1,-1,-1,-1,-1,-1,-1,-1,-1,-1,-1,-1,-1,-1,-1,-1,-1,-1,-1,-1,-1,-1,-1,-1,-1,-1,-1,-1,-1,-1,-1,-1,-1,-1,-1,-1,-1,-1,-1],"split_conditions":[2.9138E4,1E0,3.94E2,2.2796E4,1E0,1.468E3,6.8E1,1E0,2E0,2E0,2.5638E4,2.2E1,1E0,2.9936E4,5.25E0,8.1E1,-2.59E2,1.775E1,4.7E1,1E0,3.3529738E-1,1.4991E4,1.7013E4,2.9696E4,1E0,2.1E1,3.7E1,4E0,4E0,1.4302E4,1.3E1,1E0,9.0753324E-2,-1.23404354E-1,-1.12E2,2.25E0,2.5037E4,4E0,4.856E3,1.081E3,1.675E1,1.15E1,2.3392E4,3.4E1,2E0,-9.481601E-2,-4.262502E-1,-1.74E2,4.8242128E-1,-4.5489454E-1,1E0,2.6E1,1E0,4E1,1.4031E4,5.3E1,-4.8892313E-1,4E0,3.5398817E-1,2.9893E4,2E0,-3.625981E-1,-1.5465964E-1,3.2175386E-1,1.1613925E-2,4.2200234E-2,3.7491462E-1,-7.5285986E-2,3.1104767E-1,-4.460753E-1,2.372124E-1,-4.0533334E-2,3.3208206E-1,-2.2421896E-1,-7.935169E-2,2.7948818E-1,2.364417E-2,1.8146092E-1,-2.4215955E-1,2.2053693E-1,3.116392E-1,-2.1081097E-1,2.3286459E-1,-1.1689213E-1,2.323216E-1,-3.0124658E-1,-1.4812529E-1,3.8371658E-1,-4.6925577E-3,-4.1375092E-1,-2.6526895E-1,1.3392703E-1,-2.0961718E-1,-1.8786715E-1,1.5303633E-1,2.3349057E-1,-2.6845533E-1,2.2055791E-1,-8.708015E-2,-5.651823E-2,2.4012886E-1,3.039699E-1,-1.7901858E-2,-4.5749912E-1,2.3659201E-1],"split_indices":[5,14,18,5,3,11,8,2,9,0,5,8,3,5,12,13,18,12,8,6,0,19,19,5,1,8,8,0,3,13,0,1,0,0,18,12,5,7,4,11,12,12,5,8,14,0,0,18,0,0,6,8,9,8,19,8,0,0,0,5,3,0,0,0,0,0,0,0,0,0,0,0,0,0,0,0,0,0,0,0,0,0,0,0,0,0,0,0,0,0,0,0,0,0,0,0,0,0,0,0,0,0,0,0,0],"split_type":[0,0,0,0,0,0,0,0,0,0,0,0,0,0,0,0,0,0,0,0,0,0,0,0,0,0,0,0,0,0,0,0,0,0,0,0,0,0,0,0,0,0,0,0,0,0,0,0,0,0,0,0,0,0,0,0,0,0,0,0,0,0,0,0,0,0,0,0,0,0,0,0,0,0,0,0,0,0,0,0,0,0,0,0,0,0,0,0,0,0,0,0,0,0,0,0,0,0,0,0,0,0,0,0,0],"sum_hessian":[4.381981E3,1.2800402E3,3.101941E3,9.307425E2,3.492976E2,2.7690286E3,3.329123E2,3.4211575E1,8.9653094E2,9.964049E1,2.496571E2,2.3053682E3,4.636604E2,1.04908066E2,2.2800423E2,1.4974258E1,1.9237316E1,8.866054E2,9.925499E0,9.6511024E1,3.1294665E0,2.1006255E2,3.9594563E1,2.5320096E2,2.0521672E3,2.6422977E2,1.9943063E2,9.898792E1,5.920145E0,7.309769E1,1.5490656E2,1.3730647E1,1.2436119E0,1.8925806E0,1.7344736E1,8.7367474E2,1.2930711E1,4.8106675E0,5.114832E0,9.4105125E1,2.4058995E0,1.6293255E1,1.9376929E2,1.2921024E1,2.667354E1,1.1060244E0,2.5209494E2,2.0317195E3,2.0447699E1,5.6742E0,2.5855557E2,4.269187E1,1.5673877E2,2.879779E1,7.019013E1,2.7379756E0,3.1821694E0,2.7236533E0,7.037403E1,9.113967E1,6.3766876E1,5.382631E0,8.348016E0,1.3701881E1,3.6428552E0,8.216723E0,8.65458E2,8.89454E0,4.0361714E0,3.7094054E0,1.1012619E0,1.850568E0,3.2642636E0,6.685529E1,2.724983E1,1.1901109E0,1.2157886E0,1.1906787E1,4.386468E0,1.20699776E2,7.306951E1,1.0632999E0,1.1857724E1,2.2084507E1,4.589032E0,4.0126895E2,1.6304506E3,2.555377E2,3.0178645E0,3.3342354E1,9.34952E0,1.229329E1,1.4444548E2,5.109982E0,2.3687809E1,6.821266E1,1.9774698E0,1.7344875E0,1.0034882E0,1.2233169E0,1.5003363E0,8.9384926E1,1.754743E0,1.9074821E0,6.1859394E1],"tree_param":{"num_deleted":"0","num_feature":"22","num_nodes":"105","size_leaf_vector":"1"}},{"base_weights":[3.048938E-2,8.2987463E-1,-2.653858E-1,1.066E0,2.7909374E-1,-3.721046E-1,6.897371E-1,1.1281096E0,3.1177363E-1,-3.6376604E-1,5.589515E-1,-4.3015385E-1,3.62523E-1,4.0657738E-1,8.357529E-1,1.152318E0,1.3638335E-1,6.7399406E-1,-1.116062E-1,-4.126033E-1,2.7555448E-1,6.584228E-1,7.631182E-2,-1.2752522E0,-3.41025E-1,4.715756E-1,-5.18346E-1,9.826992E-1,6.854613E-1,-1.7590608E-1,1.1647742E0,-7.473306E-1,4.5552176E-1,7.594037E-1,-1.011871E-1,-3.301258E-1,4.4507992E-1,-4.429295E-1,5.6080014E-1,6.946817E-1,-8.021366E-2,2.784859E-1,-4.1869375E-1,-8.152205E-2,-3.8358724E-1,-6.248741E-1,-1.2229865E-1,1.6137522E-1,6.035347E-1,1.8386078E-1,-1.0595149E0,1.000159E0,-2.6859734E-3,-4.9543324E-1,7.3268765E-1,-2.9707465E-1,2.966077E-1,3.5237673E-1,2.7188066E-1,-4.9798265E-1,1.1686172E-1,2.2658552E-1,-2.0477088E-1,2.5382653E-1,-1.1174044E-1,-1.6583055E-1,2.5957865E-1,7.0455424E-3,2.3765582E-1,-1.6798902E-1,-5.54165E-2,5.8172485E-3,2.5483483E-1,1.7009583E-1,2.6344645E-1,-1.8743871E-1,1.3137859E-1,4.3660554E-4,2.7322415E-1,2.371195E-1,-2.1198863E-1,-3.3453646E-1,-5.6908667E-2,3.5498938E-1,-1.4226185E-1,8.259453E-2,-2.6185343E-1,2.0894948E-1,-6.211965E-2,-1.0620561E-1,-3.7836185E-1,1.1778554E-3,3.0511335E-1,2.3518497E-1,-3.867836E-1,2.3423405E-1,-1.0176906E-1],"categories":[],"categories_nodes":[],"categories_segments":[],"categories_sizes":[],"default_left":[0,0,1,0,0,0,0,0,0,0,0,0,0,0,0,0,0,0,0,0,0,1,0,0,1,0,0,0,0,0,0,1,0,0,0,0,0,1,1,0,0,1,0,0,0,0,0,0,0,0,0,0,0,0,0,0,0,0,0,0,0,0,0,0,0,0,0,0,0,0,0,0,0,0,0,0,0,0,0,0,0,0,0,0,0,0,0,0,0,0,0,0,0,0,0,0,0],"id":3,"left_children":[1,3,5,7,9,11,13,15,17,19,21,23,-1,25,27,29,31,33,35,37,-1,39,41,43,45,47,49,51,53,55,57,59,61,63,-1,65,67,69,71,73,75,77,79,-1,-1,81,83,85,87,-1,89,91,-1,93,95,-1,-1,-1,-1,-1,-1,-1,-1,-1,-1,-1,-1,-1,-1,-1,-1,-1,-1,-1,-1,-1,-1,-1,-1,-1,-1,-1,-1,-1,-1,-1,-1,-1,-1,-1,-1,-1,-1,-1,-1,-1,-1],"loss_changes":[9.3602246E2,1.3873956E2,2.9467993E2,3.468463E1,5.816117E1,2.3895773E2,1.1677551E1,1.6423828E1,9.013876E0,6.5356493E0,1.0743919E1,1.884375E2,0E0,6.3064747E0,3.5406036E0,1.13567505E1,5.30165E0,2.9815845E0,3.520495E0,3.064455E0,0E0,5.0448685E0,4.074795E0,4.607849E-1,1.4083548E2,3.7805786E0,4.994096E0,1.6395416E0,5.8084335E0,7.742301E0,6.3012695E-1,5.8819313E0,5.1366267E0,3.2001762E0,0E0,5.9313736E0,1.1876951E0,2.7091293E0,5.0292253E-1,3.6647415E0,2.986176E0,5.0225744E0,4.6905518E0,0E0,0E0,2.1047397E2,5.9008826E2,3.7329035E0,5.1251984E0,0E0,2.8874493E-1,1.5529785E0,0E0,5.430089E0,5.1256638E0,0E0,0E0,0E0,0E0,0E0,0E0,0E0,0E0,0E0,0E0,0E0,0E0,0E0,0E0,0E0,0E0,0E0,0E0,0E0,0E0,0E0,0E0,0E0,0E0,0E0,0E0,0E0,0E0,0E0,0E0,0E0,0E0,0E0,0E0,0E0,0E0,0E0,0E0,0E0,0E0,0E0,0E0],"parents":[2147483647,0,0,1,1,2,2,3,3,4,4,5,5,6,6,7,7,8,8,9,9,10,10,11,11,13,13,14,14,15,15,16,16,17,17,18,18,19,19,21,21,22,22,23,23,24,24,25,25,26,26,27,27,28,28,29,29,30,30,31,31,32,32,33,33,35,35,36,36,37,37,38,38,39,39,40,40,41,41,42,42,45,45,46,46,47,47,48,48,50,50,51,51,53,53,54,54],"right_children":[2,4,6,8,10,12,14,16,18,20,22,24,-1,26,28,30,32,34,36,38,-1,40,42,44,46,48,50,52,54,56,58,60,62,64,-1,66,68,70,72,74,76,78,80,-1,-1,82,84,86,88,-1,90,92,-1,94,96,-1,-1,-1,-1,-1,-1,-1,-1,-1,-1,-1,-1,-1,-1,-1,-1,-1,-1,-1,-1,-1,-1,-1,-1,-1,-1,-1,-1,-1,-1,-1,-1,-1,-1,-1,-1,-1,-1,-1,-1,-1,-1],"split_conditions":[2.9138E4,1E0,3.94E2,1.55E1,1E0,1E0,7.1E1,1E0,7E1,2E0,2.5638E4,2.2E1,3.62523E-1,2.9936E4,7E0,2.25E0,5E0,-1.26E2,1E0,1E0,2.7555448E-1,8.1E1,4E0,2.9696E4,2.921E4,4E0,3E0,1E0,2E0,2.3432E4,1E0,3.9E1,4.817E3,1.95E1,-1.011871E-1,2.5037E4,1.725E1,5.9E1,5.4E1,2.3392E4,1.2E1,6.6E1,-4.64E3,-8.152205E-2,-3.8358724E-1,1E0,1E0,6.7E1,5.75E0,1.8386078E-1,4.75E0,1.2815E4,-2.6859734E-3,1E0,5.94E2,-2.9707465E-1,2.966077E-1,3.5237673E-1,2.7188066E-1,-4.9798265E-1,1.1686172E-1,2.2658552E-1,-2.0477088E-1,2.5382653E-1,-1.1174044E-1,-1.6583055E-1,2.5957865E-1,7.0455424E-3,2.3765582E-1,-1.6798902E-1,-5.54165E-2,5.8172485E-3,2.5483483E-1,1.7009583E-1,2.6344645E-1,-1.8743871E-1,1.3137859E-1,4.3660554E-4,2.7322415E-1,2.371195E-1,-2.1198863E-1,-3.3453646E-1,-5.6908667E-2,3.5498938E-1,-1.4226185E-1,8.259453E-2,-2.6185343E-1,2.0894948E-1,-6.211965E-2,-1.0620561E-1,-3.7836185E-1,1.1778554E-3,3.0511335E-1,2.3518497E-1,-3.867836E-1,2.3423405E-1,-1.0176906E-1],"split_indices":[5,14,18,12,3,1,8,3,8,0,5,8,0,5,0,12,3,18,6,6,0,8,7,5,5,0,3,1,3,5,1,8,13,12,0,5,12,8,8,5,0,8,13,0,0,9,9,8,12,0,12,13,0,14,18,0,0,0,0,0,0,0,0,0,0,0,0,0,0,0,0,0,0,0,0,0,0,0,0,0,0,0,0,0,0,0,0,0,0,0,0,0,0,0,0,0,0],"split_type":[0,0,0,0,0,0,0,0,0,0,0,0,0,0,0,0,0,0,0,0,0,0,0,0,0,0,0,0,0,0,0,0,0,0,0,0,0,0,0,0,0,0,0,0,0,0,0,0,0,0,0,0,0,0,0,0,0,0,0,0,0,0,0,0,0,0,0,0,0,0,0,0,0,0,0,0,0,0,0,0,0,0,0,0,0,0,0,0,0,0,0,0,0,0,0,0,0],"sum_hessian":[3.955575E3,1.068077E3,2.8874978E3,7.469266E2,3.2115042E2,2.5978433E3,2.8965454E2,6.896399E2,5.7286644E1,9.731312E1,2.2383731E2,2.5065117E3,9.133152E1,9.9835014E1,1.8981952E2,6.730486E2,1.6591307E1,3.0554213E1,2.6732433E1,9.439616E1,2.916965E0,1.8528593E2,3.8551373E1,2.378612E2,2.2686506E3,9.3737816E1,6.097198E0,9.317745E1,9.664207E1,6.1313543E0,6.6691724E2,4.045992E0,1.2545315E1,2.8404348E1,2.1498647E0,1.9489195E1,7.243239E0,9.207262E1,2.3235395E0,1.7667276E2,8.613179E0,2.7682484E1,1.086889E1,1.0697781E0,2.3679143E2,9.8653345E2,1.2821172E3,2.8638746E1,6.509907E1,1.9301267E0,4.1670713E0,9.155686E1,1.6205956E0,3.3513374E0,9.3290726E1,3.6963782E0,2.434976E0,6.3910803E2,2.7809195E1,1.9891341E0,2.0568576E0,1.0196108E1,2.3492074E0,2.6618269E1,1.7860788E0,1.6882404E1,2.6067894E0,3.7527776E0,3.490461E0,6.2552E1,2.9520617E1,1.1791071E0,1.1444323E0,1.06582535E2,7.009022E1,4.0990868E0,4.514093E0,1.99455E1,7.7369857E0,1.754858E0,9.114032E0,4.6317944E2,5.23354E2,2.7170688E2,1.0104103E3,2.64577E1,2.181046E0,5.8527603E1,6.571463E0,1.5390117E0,2.6280596E0,1.5464988E0,9.001036E1,1.2880102E0,2.0633273E0,8.954483E1,3.7458978E0],"tree_param":{"num_deleted":"0","num_feature":"22","num_nodes":"97","size_leaf_vector":"1"}},{"base_weights":[3.07398E-2,7.3171335E-1,-2.0413432E-1,9.8665893E-1,2.2178145E-1,-3.5721937E-1,-1.281896E-1,1.0587527E0,2.5062963E-1,-2.5997698E-1,4.4667432E-1,-4.624263E-1,7.52326E-2,1.0874587E0,8.778522E-2,6.56893E-2,9.114964E-1,-2.978377E-1,7.740727E-1,5.778135E-1,1.3110307E-1,-8.699901E-1,-1.3343024E-1,7.9305166E-1,-3.4175038E-1,-1.2362564E-1,1.1011027E0,-6.069296E-1,3.5308284E-1,-5.8969593E-1,6.2584007E-1,3.138653E-1,-7.067942E-2,-3.99386E-1,-5.2005276E-2,6.906591E-2,2.6910698E-1,-1.8017799E-1,5.983274E-1,-1.1312463E0,2.3994498E-1,-1.1051725E0,-5.305873E-1,1.1518513E-1,-5.02766E-1,1.0456733E0,3.784256E-1,1.9885329E0,-3.7746322E-1,-2.2976397E-1,2.630439E-1,3.3411205E-1,2.3882288E-1,-3.9834154E-1,9.640085E-2,1.8447326E-1,-1.5468705E-1,-2.905611E-1,-5.4367073E-2,2.257564E-1,-2.4214922E-1,-1.5435313E-1,7.1549756E-3,-7.7370405E-2,2.1089998E-1,-2.2061136E-1,1.8437223E-1,7.231387E-2,-4.916961E-1,-1.1746568E-1,1.2104898E-1,-3.7043288E-1,-1.9473505E-1,-2.3973735E-1,4.571884E-1,7.36672E-2,-1.9430715E-1,-2.2000124E-1,-3.0030569E-3,3.3902332E-1,1.856301E-1,-1.8115738E-2,1.5777484E-1,6.5695727E-1,1.753821E-1,2.9665995E-1,-1.2352917E-1],"categories":[],"categories_nodes":[],"categories_segments":[],"categories_sizes":[],"default_left":[0,0,0,0,0,0,1,0,0,0,0,0,0,0,0,0,0,0,0,0,0,0,0,0,1,0,0,1,0,0,0,0,0,0,0,0,0,0,0,0,0,0,0,1,0,0,0,0,0,0,0,0,0,0,0,0,0,0,0,0,0,0,0,0,0,0,0,0,0,0,0,0,0,0,0,0,0,0,0,0,0,0,0,0,0,0,0],"id":4,"left_children":[1,3,5,7,9,-1,11,13,15,17,19,21,23,25,27,29,31,33,35,37,39,41,43,45,47,49,51,53,55,57,59,-1,-1,61,63,-1,-1,-1,65,67,69,71,73,75,77,79,81,83,85,-1,-1,-1,-1,-1,-1,-1,-1,-1,-1,-1,-1,-1,-1,-1,-1,-1,-1,-1,-1,-1,-1,-1,-1,-1,-1,-1,-1,-1,-1,-1,-1,-1,-1,-1,-1,-1,-1],"loss_changes":[5.8473413E2,1.15660645E2,1.991771E2,3.1251831E1,3.2444893E1,0E0,1.680614E2,1.4974243E1,6.5764556E0,3.9730878E0,8.35804E0,1.252755E2,4.603679E2,8.811951E0,3.276195E0,1.6339632E1,2.0692406E0,2.2993908E0,3.7843466E-2,3.832489E0,8.66922E0,3.274066E1,4.7680084E1,5.8797638E1,8.172654E1,5.007562E0,1.1099243E0,3.7449155E0,3.1953073E0,3.0063953E0,4.953495E0,0E0,0E0,3.209694E0,4.5835166E0,0E0,0E0,0E0,3.5226746E0,3.8974566E0,6.0548124E0,1.3721039E1,9.6565125E1,3.1069412E1,2.3720535E1,1.1933868E1,1.3980671E1,2.916092E0,4.535994E1,0E0,0E0,0E0,0E0,0E0,0E0,0E0,0E0,0E0,0E0,0E0,0E0,0E0,0E0,0E0,0E0,0E0,0E0,0E0,0E0,0E0,0E0,0E0,0E0,0E0,0E0,0E0,0E0,0E0,0E0,0E0,0E0,0E0,0E0,0E0,0E0,0E0,0E0],"parents":[2147483647,0,0,1,1,2,2,3,3,4,4,6,6,7,7,8,8,9,9,10,10,11,11,12,12,13,13,14,14,15,15,16,16,17,17,18,18,19,19,20,20,21,21,22,22,23,23,24,24,25,25,26,26,27,27,28,28,29,29,30,30,33,33,34,34,38,38,39,39,40,40,41,41,42,42,43,43,44,44,45,45,46,46,47,47,48,48],"right_children":[2,4,6,8,10,-1,12,14,16,18,20,22,24,26,28,30,32,34,36,38,40,42,44,46,48,50,52,54,56,58,60,-1,-1,62,64,-1,-1,-1,66,68,70,72,74,76,78,80,82,84,86,-1,-1,-1,-1,-1,-1,-1,-1,-1,-1,-1,-1,-1,-1,-1,-1,-1,-1,-1,-1,-1,-1,-1,-1,-1,-1,-1,-1,-1,-1,-1,-1,-1,-1,-1,-1,-1,-1],"split_conditions":[2.9138E4,1E0,2.2E1,1.55E1,1E0,-3.5721937E-1,2.921E4,1E0,2.8534E4,2E0,3.65E2,1E0,2E0,2.25E0,5E0,1E0,8.2E1,1.081E3,1.6E1,-9.014E3,-9.5E1,1.304E3,1.2E1,1E0,2.4E1,2.3432E4,1E0,3.9E1,4.817E3,1E0,-1.12E2,3.138653E-1,-7.067942E-2,4.1E1,-2.93E2,6.906591E-2,2.6910698E-1,-1.8017799E-1,3.1E1,-1.24E2,2.3481E4,1E0,1E0,6.817E3,9.13E2,1E1,5.2E1,1.1E1,2.9452E4,-2.2976397E-1,2.630439E-1,3.3411205E-1,2.3882288E-1,-3.9834154E-1,9.640085E-2,1.8447326E-1,-1.5468705E-1,-2.905611E-1,-5.4367073E-2,2.257564E-1,-2.4214922E-1,-1.5435313E-1,7.1549756E-3,-7.7370405E-2,2.1089998E-1,-2.2061136E-1,1.8437223E-1,7.231387E-2,-4.916961E-1,-1.1746568E-1,1.2104898E-1,-3.7043288E-1,-1.9473505E-1,-2.3973735E-1,4.571884E-1,7.36672E-2,-1.9430715E-1,-2.2000124E-1,-3.0030569E-3,3.3902332E-1,1.856301E-1,-1.8115738E-2,1.5777484E-1,6.5695727E-1,1.753821E-1,2.9665995E-1,-1.2352917E-1],"split_indices":[5,14,8,12,3,0,5,3,5,0,13,9,9,12,3,2,8,11,12,13,18,13,0,14,8,5,1,8,13,1,18,0,0,18,18,0,0,0,8,18,5,6,14,4,13,0,8,0,5,0,0,0,0,0,0,0,0,0,0,0,0,0,0,0,0,0,0,0,0,0,0,0,0,0,0,0,0,0,0,0,0,0,0,0,0,0,0],"split_type":[0,0,0,0,0,0,0,0,0,0,0,0,0,0,0,0,0,0,0,0,0,0,0,0,0,0,0,0,0,0,0,0,0,0,0,0,0,0,0,0,0,0,0,0,0,0,0,0,0,0,0,0,0,0,0,0,0,0,0,0,0,0,0,0,0,0,0,0,0,0,0,0,0,0,0,0,0,0,0,0,0,0,0,0,0,0,0],"sum_hessian":[3.549673E3,8.9034735E2,2.6593257E3,5.9295746E2,2.9738992E2,1.8902504E2,2.4703008E3,5.396596E2,5.329783E1,9.459515E1,2.0279477E2,9.341518E2,1.5361489E3,5.240465E2,1.5613108E1,4.250298E1,1.0794852E1,9.1940796E1,2.6543548E0,1.4267398E2,6.0120785E1,4.165191E2,5.176327E2,5.641265E2,9.7202246E2,5.748306E0,5.182982E2,3.9587908E0,1.1654317E1,1.9562178E1,2.29408E1,9.738991E0,1.0558612E0,6.4622116E1,2.7318678E1,1.0190775E0,1.6352772E0,1.9573637E0,1.4071661E2,4.0266128E0,5.609417E1,2.4470168E2,1.7181744E2,3.097889E2,2.0784377E2,3.4960107E2,2.1452542E2,1.3846543E1,9.581759E2,3.643643E0,2.1046631E0,4.9518518E2,2.3112997E1,1.9860462E0,1.9727446E0,9.179708E0,2.4746096E0,9.437847E0,1.01243305E1,2.151379E1,1.4270103E0,5.0633614E1,1.3988507E1,2.1982328E1,5.3363495E0,1.1608263E0,1.395558E2,1.2293236E0,2.7972894E0,1.1252504E1,4.4841667E1,1.892207E2,5.5480976E1,1.5249661E2,1.932083E1,2.6515344E2,4.4635475E1,1.4125784E2,6.658592E1,2.9051556E2,5.908551E1,5.4114716E1,1.604107E2,1.162036E1,2.226183E0,2.2783684E1,9.353922E2],"tree_param":{"num_deleted":"0","num_feature":"22","num_nodes":"87","size_leaf_vector":"1"}},{"base_weights":[2.8586447E-2,-1.238441E-1,7.8393674E-1,-3.3806896E-1,-6.555578E-2,1.0554054E0,3.5960558E-1,-3.572506E-1,9.052543E-2,1.0647045E0,-2.5223824E-1,4.4465476E-1,-8.631961E-1,-8.221249E-1,-1.3886225E-1,5.882231E-1,-1.724775E-1,5.5621696E-1,1.0955414E0,4.8932803E-1,-3.4114262E-1,1.03135556E-1,-1.0178285E0,-8.6824495E-1,1.0444727E0,-2.4463448E-1,7.350836E-1,-4.678833E-2,8.3342487E-1,3.551819E-1,-2.8346464E-1,-4.8190635E-1,7.701855E-1,1.0038465E-1,3.2951713E-1,3.4703696E-1,6.608333E-1,-7.9885113E-1,1.4442413E-1,-1.3077042E0,-3.985769E-1,-1.8907148E-1,-3.3233783E-1,1.0344146E-1,3.4880477E-1,1.5227696E-1,-9.8932706E-2,3.873595E-1,1.5272029E-1,-7.2676554E-2,1.576349E-1,3.0975604E-1,7.56979E-2,2.6024597E-2,1.5000056E-1,4.3634307E-1,-9.351763E-2,2.6621372E-1,-1.673688E-1,1.720866E-1,4.3936547E-2,-6.5436125E-2,2.1941476E-1,-3.9326787E-1,1.5083269E-2,1.3867547E-1,-1.3586572E-1,-1.1874879E-1,-4.3599293E-1,9.1082886E-2,-2.1225753E-1],"categories":[],"categories_nodes":[],"categories_segments":[],"categories_sizes":[],"default_left":[1,0,0,0,0,0,0,0,0,0,0,0,0,0,0,0,0,0,0,0,0,0,0,1,0,0,0,0,0,0,1,0,0,0,0,0,0,1,0,0,0,0,0,0,0,0,0,0,0,0,0,0,0,0,0,0,0,0,0,0,0,0,0,0,0,0,0,0,0,0,0],"id":5,"left_children":[1,3,5,-1,7,9,11,13,15,17,-1,19,21,23,25,27,29,31,33,35,37,-1,39,41,43,45,47,49,51,53,55,-1,57,-1,-1,59,61,63,65,67,69,-1,-1,-1,-1,-1,-1,-1,-1,-1,-1,-1,-1,-1,-1,-1,-1,-1,-1,-1,-1,-1,-1,-1,-1,-1,-1,-1,-1,-1,-1],"loss_changes":[3.6828256E2,1.5554407E2,6.148935E1,0E0,1.14606316E2,6.6615906E0,2.2334173E1,8.896198E1,2.1479152E2,4.500366E0,0E0,7.1175194E0,2.975068E0,2.5031677E1,5.547344E1,8.8369675E1,6.2989983E1,1.07986965E1,2.9629517E-1,4.3526726E0,2.61347E0,0E0,1.7622032E0,1.4925064E1,1.9551182E-1,3.438893E1,7.491024E0,1.790952E1,4.7094543E1,7.228712E0,4.405831E1,0E0,3.526842E0,0E0,0E0,4.675642E0,5.3703995E0,2.648189E0,1.4055333E0,5.16963E-1,1.4067594E0,0E0,0E0,0E0,0E0,0E0,0E0,0E0,0E0,0E0,0E0,0E0,0E0,0E0,0E0,0E0,0E0,0E0,0E0,0E0,0E0,0E0,0E0,0E0,0E0,0E0,0E0,0E0,0E0,0E0,0E0],"parents":[2147483647,0,0,1,1,2,2,4,4,5,5,6,6,7,7,8,8,9,9,11,11,12,12,13,13,14,14,15,15,16,16,17,17,18,18,19,19,20,20,22,22,23,23,24,24,25,25,26,26,27,27,28,28,29,29,30,30,32,32,35,35,36,36,37,37,38,38,39,39,40,40],"right_children":[2,4,6,-1,8,10,12,14,16,18,-1,20,22,24,26,28,30,32,34,36,38,-1,40,42,44,46,48,50,52,54,56,-1,58,-1,-1,60,62,64,66,68,70,-1,-1,-1,-1,-1,-1,-1,-1,-1,-1,-1,-1,-1,-1,-1,-1,-1,-1,-1,-1,-1,-1,-1,-1,-1,-1,-1,-1,-1,-1],"split_conditions":[1.75E2,2.2E1,1E0,-3.3806896E-1,1E0,1.075E1,1.4586E4,2E0,2E0,8.472E3,-2.5223824E-1,5.94E2,1E0,1E0,-1.12E2,2.6166E4,3.6469E4,1.302E4,3E1,5.32E2,8E0,1.03135556E-1,2.9784E4,-3.99E2,4.8E1,3.7E1,1E0,1E0,1E0,1.375E1,2.4E1,-4.8190635E-1,5.82E2,1.0038465E-1,3.2951713E-1,1.1E1,3E0,4.4E1,2.939E4,2.8785E4,1.9002E4,-1.8907148E-1,-3.3233783E-1,1.0344146E-1,3.4880477E-1,1.5227696E-1,-9.8932706E-2,3.873595E-1,1.5272029E-1,-7.2676554E-2,1.576349E-1,3.0975604E-1,7.56979E-2,2.6024597E-2,1.5000056E-1,4.3634307E-1,-9.351763E-2,2.6621372E-1,-1.673688E-1,1.720866E-1,4.3936547E-2,-6.5436125E-2,2.1941476E-1,-3.9326787E-1,1.5083269E-2,1.3867547E-1,-1.3586572E-1,-1.1874879E-1,-4.3599293E-1,9.1082886E-2,-2.1225753E-1],"split_indices":[18,8,2,0,16,12,19,2,9,19,0,18,9,1,18,5,5,13,8,18,0,0,5,18,8,8,15,0,14,12,8,0,18,0,0,0,3,8,5,5,19,0,0,0,0,0,0,0,0,0,0,0,0,0,0,0,0,0,0,0,0,0,0,0,0,0,0,0,0,0,0],"split_type":[0,0,0,0,0,0,0,0,0,0,0,0,0,0,0,0,0,0,0,0,0,0,0,0,0,0,0,0,0,0,0,0,0,0,0,0,0,0,0,0,0,0,0,0,0,0,0,0,0,0,0,0,0,0,0,0,0,0,0,0,0,0,0,0,0,0,0,0,0,0,0],"sum_hessian":[3.1967627E3,2.660672E3,5.360906E2,1.4511598E2,2.515556E3,3.2602603E2,2.1006456E2,8.7639764E2,1.6391583E3,3.2487137E2,1.1546825E0,1.969991E2,1.306546E1,2.792357E2,5.97162E2,5.662915E2,1.072867E3,1.9663597E1,3.0520776E2,1.8675897E2,1.024013E1,1.344868E0,1.17205925E1,2.7302463E2,6.211068E0,5.3333356E2,6.38284E1,1.5797775E2,4.0831372E2,1.8606572E2,8.868012E2,1.1844969E0,1.84791E1,1.5803102E0,3.0362744E2,1.03725525E2,8.303345E1,4.939155E0,5.300976E0,7.226207E0,4.4943852E0,1.3877415E2,1.3425046E2,1.4638183E0,4.7472496E0,5.37235E1,4.7961008E2,1.7082901E1,4.6745502E1,1.1818455E2,3.97932E1,3.0353882E2,1.0477492E2,6.5765E1,1.2030071E2,1.3382101E1,8.7341907E2,1.7285604E1,1.1934956E0,4.7832397E1,5.589313E1,6.0140624E0,7.701939E1,2.7419155E0,2.1972394E0,3.6075282E0,1.6934476E0,1.5069871E0,5.7192197E0,1.3785214E0,3.115864E0],"tree_param":{"num_deleted":"0","num_feature":"22","num_nodes":"71","size_leaf_vector":"1"}},{"base_weights":[2.6265288E-2,-9.385163E-2,6.9873947E-1,-1.0843393E0,-4.6818726E-2,1.0155932E0,2.8204206E-1,-4.131392E-1,-3.2792187E-1,8.620319E-2,-3.0885354E-1,1.0260545E0,-2.2283404E-1,3.524229E-1,-6.985726E-1,-1.6507903E-1,-2.2269204E-2,-2.4128008E-1,2.849294E-1,1.5642941E-1,-3.6957216E-1,4.5495528E-1,1.0657616E0,1.0375245E-1,4.9021903E-1,8.8555835E-2,-8.293658E-1,-6.254663E-1,1.1831525E-1,7.018386E-1,5.5837177E-2,-1.2624544E0,2.2092174E-1,-3.2728592E-1,-8.88014E-1,-3.4029612E-1,6.706731E-1,8.6404234E-2,3.2083583E-1,-3.581224E-1,2.6339862E-1,7.563942E-1,3.889731E-1,-1.0783929E0,-3.157863E-1,-2.0061846E-1,2.5088173E-1,1.6227971E-1,-1.4392274E-2,-2.0097755E-2,2.4993514E-1,-1.7301716E-2,5.912925E-2,-6.1488252E-2,-4.6526995E-1,-6.758896E-2,1.1320958E-1,-1.5855302E-1,-6.672203E-2,1.1310027E-1,-2.8330007E-1,2.3816189E-1,-1.3443379E-1,-4.3851472E-2,-3.4792447E-1,2.2090417E-1,-1.8558312E-2,-6.682488E-2,2.4215482E-1,-1.5510672E-1,1.313187E-1,-9.324704E-2,-3.691774E-1,-1.9048022E-1,8.657897E-2],"categories":[],"categories_nodes":[],"categories_segments":[],"categories_sizes":[],"default_left":[1,0,0,0,0,0,0,0,0,0,1,0,0,0,0,0,0,0,0,0,1,0,0,0,0,0,0,0,0,0,0,0,0,1,0,0,0,0,0,0,0,0,0,0,0,0,0,0,0,0,0,0,0,0,0,0,0,0,0,0,0,0,0,0,0,0,0,0,0,0,0,0,0,0,0],"id":6,"left_children":[1,3,5,7,9,11,13,15,-1,17,19,21,-1,23,25,-1,-1,27,29,31,33,35,37,39,41,-1,43,45,47,49,51,53,55,57,59,-1,61,-1,-1,63,65,67,69,71,73,-1,-1,-1,-1,-1,-1,-1,-1,-1,-1,-1,-1,-1,-1,-1,-1,-1,-1,-1,-1,-1,-1,-1,-1,-1,-1,-1,-1,-1,-1],"loss_changes":[2.3546112E2,1.15175255E2,5.8040558E1,2.0544434E-1,8.236957E1,5.3711853E0,1.3511305E1,1.0076821E-1,0E0,1.0209329E2,2.2536255E1,5.1729736E0,0E0,6.1168385E0,1.9613304E0,0E0,0E0,8.194116E1,9.318889E1,8.747797E0,1.5145554E1,6.919527E0,3.595581E-1,4.9201374E0,2.8197346E0,0E0,1.185607E0,1.8686783E1,2.1596127E1,3.4984955E1,1.0129581E1,9.5490885E-1,6.324199E0,1.3654953E1,4.097481E0,0E0,2.62253E0,0E0,0E0,2.7587368E0,7.61588E0,1.7105579E0,4.0148773E0,5.079384E-1,1.2076099E0,0E0,0E0,0E0,0E0,0E0,0E0,0E0,0E0,0E0,0E0,0E0,0E0,0E0,0E0,0E0,0E0,0E0,0E0,0E0,0E0,0E0,0E0,0E0,0E0,0E0,0E0,0E0,0E0,0E0,0E0],"parents":[2147483647,0,0,1,1,2,2,3,3,4,4,5,5,6,6,7,7,9,9,10,10,11,11,13,13,14,14,17,17,18,18,19,19,20,20,21,21,22,22,23,23,24,24,26,26,27,27,28,28,29,29,30,30,31,31,32,32,33,33,34,34,36,36,39,39,40,40,41,41,42,42,43,43,44,44],"right_children":[2,4,6,8,10,12,14,16,-1,18,20,22,-1,24,26,-1,-1,28,30,32,34,36,38,40,42,-1,44,46,48,50,52,54,56,58,60,-1,62,-1,-1,64,66,68,70,72,74,-1,-1,-1,-1,-1,-1,-1,-1,-1,-1,-1,-1,-1,-1,-1,-1,-1,-1,-1,-1,-1,-1,-1,-1,-1,-1,-1,-1,-1,-1],"split_conditions":[1.75E2,2.2E1,1E0,1E0,1.2E1,1.075E1,1.4586E4,1E0,-3.2792187E-1,1E0,2.9123E4,8.472E3,-2.2283404E-1,6.8E1,1E0,-1.6507903E-1,-2.2269204E-2,1E0,1E0,1.4586E4,8.2E1,1.302E4,3E1,4E0,5.25E0,8.8555835E-2,2.9784E4,1E0,2E0,2.5037E4,5.5E1,2E0,6E0,-1.4E2,1.4E1,-3.4029612E-1,5.82E2,8.6404234E-2,3.2083583E-1,1.5867E4,1.1E1,1.4302E4,2E0,2.8785E4,3E0,-2.0061846E-1,2.5088173E-1,1.6227971E-1,-1.4392274E-2,-2.0097755E-2,2.4993514E-1,-1.7301716E-2,5.912925E-2,-6.1488252E-2,-4.6526995E-1,-6.758896E-2,1.1320958E-1,-1.5855302E-1,-6.672203E-2,1.1310027E-1,-2.8330007E-1,2.3816189E-1,-1.3443379E-1,-4.3851472E-2,-3.4792447E-1,2.2090417E-1,-1.8558312E-2,-6.682488E-2,2.4215482E-1,-1.5510672E-1,1.313187E-1,-9.324704E-2,-3.691774E-1,-1.9048022E-1,8.657897E-2],"split_indices":[18,8,2,16,0,12,19,9,0,16,5,19,0,8,9,0,0,9,14,19,8,13,8,0,12,0,5,1,0,5,8,7,3,18,0,0,18,0,0,13,0,13,3,5,15,0,0,0,0,0,0,0,0,0,0,0,0,0,0,0,0,0,0,0,0,0,0,0,0,0,0,0,0,0,0],"split_type":[0,0,0,0,0,0,0,0,0,0,0,0,0,0,0,0,0,0,0,0,0,0,0,0,0,0,0,0,0,0,0,0,0,0,0,0,0,0,0,0,0,0,0,0,0,0,0,0,0,0,0,0,0,0,0,0,0,0,0,0,0,0,0,0,0,0,0,0,0,0,0,0,0,0,0],"sum_hessian":[2.913194E3,2.4724307E3,4.4076358E2,1.1108048E2,2.36135E3,2.4956155E2,1.9120203E2,2.0472722E0,1.0903321E2,1.5666908E3,7.9465924E2,2.4849959E2,1.0619661E0,1.7899571E2,1.2206303E1,1.0135502E0,1.033722E0,5.915895E2,9.751014E2,9.1549E1,7.031102E2,1.6964233E1,2.3153535E2,6.444662E1,1.145491E2,1.2734923E0,1.0932811E1,2.856577E2,3.0593176E2,3.450695E2,6.3003186E2,3.172659E0,8.837634E1,6.515948E2,5.151547E1,1.5185014E0,1.5445732E1,1.4669402E0,2.300684E2,1.6234655E1,4.821196E1,2.9781849E1,8.476725E1,6.622096E0,4.3107147E0,2.7797327E2,7.6844373E0,8.574975E1,2.2018199E2,5.0398838E1,2.9467065E2,3.4965707E2,2.8037482E2,1.0465146E0,2.1261442E0,2.2827152E1,6.5549194E1,2.2186984E2,4.2972495E2,1.9530588E0,4.956241E1,1.4175186E1,1.2705457E0,1.37748995E1,2.4597564E0,1.9130747E1,2.9081215E1,1.3016521E0,2.8480196E1,3.8383157E0,8.092894E1,1.5992026E0,5.0228934E0,2.7879648E0,1.5227495E0],"tree_param":{"num_deleted":"0","num_feature":"22","num_nodes":"75","size_leaf_vector":"1"}},{"base_weights":[2.141095E-2,-7.1790144E-2,6.1662143E-1,-1.0525411E0,-3.4652863E-2,9.811883E-1,2.1863046E-1,-3.1920245E-1,-9.35156E-2,5.546065E-2,-2.608394E-1,3.6886927E-1,1.0303223E0,2.763561E-1,-5.7534635E-1,-1.8548362E-1,1.9810177E-1,1.569318E-1,-3.052401E-1,-2.5432464E-1,5.778334E-1,1.0421304E0,-1.1126958E-1,8.3028264E-2,4.0415058E-1,-3.6689505E-1,-3.4272546E-1,-5.912244E-1,3.438251E-2,5.11456E-1,2.0840246E-2,-4.5942996E-2,7.463731E-1,-2.4114114E-1,-6.514641E-1,7.177593E-1,-1.8550262E-1,7.4272975E-2,3.1409395E-1,-3.5350627E-1,2.4139957E-1,3.4714624E-1,2.9165378E-1,1.3699138E-1,-5.6499976E-1,-9.653098E-2,-2.708848E-1,-1.711471E-1,4.3907914E-2,-2.5786808E-2,2.6286396E-1,-5.010351E-3,3.8127914E-1,-1.8762593E-1,4.4552915E-2,2.2543104E-2,2.8122732E-1,-1.3212141E-1,-4.1359603E-2,-3.4468028E-1,-1.6477977E-1,2.7986474E-2,2.2947212E-1,-5.3570718E-2,-3.7689084E-1,1.9288363E-1,2.7116337E-3,1.24735475E-1,-2.8458051E-2,-2.697769E-1,-4.8180602E-2],"categories":[],"categories_nodes":[],"categories_segments":[],"categories_sizes":[],"default_left":[1,0,0,0,0,0,0,0,0,0,1,0,0,0,0,0,0,0,1,0,0,0,0,0,0,0,0,1,0,0,0,0,0,1,0,0,0,0,0,0,0,0,0,0,0,0,0,0,0,0,0,0,0,0,0,0,0,0,0,0,0,0,0,0,0,0,0,0,0,0,0],"id":7,"left_children":[1,3,5,7,9,11,13,-1,-1,15,17,19,21,23,25,27,29,31,33,-1,35,37,-1,39,41,-1,43,45,47,49,51,53,55,57,59,61,-1,-1,-1,63,65,67,-1,-1,69,-1,-1,-1,-1,-1,-1,-1,-1,-1,-1,-1,-1,-1,-1,-1,-1,-1,-1,-1,-1,-1,-1,-1,-1,-1,-1],"loss_changes":[1.505512E2,8.543515E1,5.309584E1,3.9535522E-1,4.6121475E1,5.3805847E0,8.268829E0,0E0,0E0,5.5660526E1,1.2005596E1,4.5018024E0,3.310028E0,4.0584507E0,1.4364791E0,5.3755836E1,5.6484367E1,7.5191054E0,1.2782341E1,0E0,2.7975097E0,4.169464E-1,0E0,4.7292156E0,2.8828735E0,0E0,2.115003E0,1.749556E1,2.6607824E1,8.014365E1,3.0556557E1,5.445947E0,1.9922361E0,1.0096252E1,3.9697075E0,3.1293583E-1,0E0,0E0,0E0,2.6638882E0,4.6485333E0,2.8287783E0,0E0,0E0,1.0213845E0,0E0,0E0,0E0,0E0,0E0,0E0,0E0,0E0,0E0,0E0,0E0,0E0,0E0,0E0,0E0,0E0,0E0,0E0,0E0,0E0,0E0,0E0,0E0,0E0,0E0,0E0],"parents":[2147483647,0,0,1,1,2,2,3,3,4,4,5,5,6,6,9,9,10,10,11,11,12,12,13,13,14,14,15,15,16,16,17,17,18,18,20,20,21,21,23,23,24,24,26,26,27,27,28,28,29,29,30,30,31,31,32,32,33,33,34,34,35,35,39,39,40,40,41,41,44,44],"right_children":[2,4,6,8,10,12,14,-1,-1,16,18,20,22,24,26,28,30,32,34,-1,36,38,-1,40,42,-1,44,46,48,50,52,54,56,58,60,62,-1,-1,-1,64,66,68,-1,-1,70,-1,-1,-1,-1,-1,-1,-1,-1,-1,-1,-1,-1,-1,-1,-1,-1,-1,-1,-1,-1,-1,-1,-1,-1,-1,-1],"split_conditions":[1.75E2,2.2E1,1E0,4E0,1.6E1,8.472E3,1.4586E4,-3.1920245E-1,-9.35156E-2,1E0,2.3432E4,1.302E4,1.025E1,7.2E1,1.5088E4,2E0,1E0,3E0,7.7E1,-2.5432464E-1,5.86E2,3E1,-1.1126958E-1,4E0,8E0,-3.6689505E-1,2.8785E4,-3.99E2,-2.14E2,2.6166E4,9.9E1,6E0,1E0,-1.38E2,-9.11E2,1.3467E4,-1.8550262E-1,7.4272975E-2,3.1409395E-1,6.7E1,1.1E1,1.4998E4,2.9165378E-1,1.3699138E-1,2.9784E4,-9.653098E-2,-2.708848E-1,-1.711471E-1,4.3907914E-2,-2.5786808E-2,2.6286396E-1,-5.010351E-3,3.8127914E-1,-1.8762593E-1,4.4552915E-2,2.2543104E-2,2.8122732E-1,-1.3212141E-1,-4.1359603E-2,-3.4468028E-1,-1.6477977E-1,2.7986474E-2,2.2947212E-1,-5.3570718E-2,-3.7689084E-1,1.9288363E-1,2.7116337E-3,1.24735475E-1,-2.8458051E-2,-2.697769E-1,-4.8180602E-2],"split_indices":[18,8,2,7,0,19,19,0,0,16,5,13,12,8,19,2,9,15,8,0,18,8,0,0,3,0,5,18,18,5,8,3,6,18,13,13,0,0,0,8,0,13,0,0,5,0,0,0,0,0,0,0,0,0,0,0,0,0,0,0,0,0,0,0,0,0,0,0,0,0,0],"split_type":[0,0,0,0,0,0,0,0,0,0,0,0,0,0,0,0,0,0,0,0,0,0,0,0,0,0,0,0,0,0,0,0,0,0,0,0,0,0,0,0,0,0,0,0,0,0,0,0,0,0,0,0,0,0,0,0,0,0,0,0,0,0,0,0,0,0,0,0,0,0,0],"sum_hessian":[2.7120942E3,2.3456758E3,3.664185E2,8.4583565E1,2.2610923E3,1.9047481E2,1.7594368E2,8.286468E1,1.7188927E0,1.6174495E3,6.4364276E2,1.4780795E1,1.7569402E2,1.6462654E2,1.1317149E1,6.0135754E2,1.0160919E3,6.1591064E1,5.820517E2,1.718506E0,1.3062289E1,1.7447995E2,1.2140607E0,6.617162E1,9.845492E1,1.8656378E0,9.451511E0,2.1075023E2,3.906073E2,3.664371E2,6.496548E2,4.650646E1,1.5084607E1,4.9255746E2,8.949425E1,1.2052383E1,1.0099057E0,1.3742212E0,1.7310573E2,1.7287697E1,4.8883923E1,9.093982E1,7.5150976E0,1.8269337E0,7.6245775E0,1.141293E2,9.6620926E1,6.0376087E1,3.302312E2,1.3920561E2,2.2723149E2,6.316717E2,1.7983072E1,1.1128069E1,3.537839E1,3.6509314E0,1.1433676E1,1.6702666E2,3.2553082E2,1.35064945E1,7.5987755E1,1.0551786E0,1.0997205E1,1.5484936E1,1.8027605E0,1.7270876E1,3.1613049E1,7.876744E1,1.2172382E1,3.5043502E0,4.1202273E0],"tree_param":{"num_deleted":"0","num_feature":"22","num_nodes":"71","size_leaf_vector":"1"}},{"base_weights":[1.8022828E-2,-5.3992365E-2,5.3496486E-1,-1.0264506E0,-2.478701E-2,9.48935E-1,1.663615E-1,-6.971805E-2,-3.123238E-1,1.19282246E-1,-1.2485587E-1,2.9535168E-1,1.0104113E0,2.2654827E-1,-4.443641E-1,-1.5987946E-1,3.1676883E-1,2.5789216E-1,-1.7661089E-1,-1.9657747E-1,4.919224E-1,1.0245014E0,-9.559548E-2,4.2841968E-1,1.04907036E-1,-5.868547E-1,9.0838075E-2,-4.953292E-1,1.66861E-1,6.568767E-1,8.066872E-2,4.2504779E-1,7.3807485E-2,-3.7560356E-1,-1.20450206E-1,6.3268703E-1,-1.5431416E-1,6.3780956E-2,3.0927807E-1,4.6434465E-1,-2.093632E-1,-1.9168456E-4,5.2458817E-1,-8.927013E-1,-2.8411683E-1,-8.300927E-2,1.6246712E-1,-7.57576E-2,-2.4918647E-1,1.4490908E-1,-3.4879353E-2,-2.328799E-2,2.5013262E-1,-7.271473E-2,7.3168285E-2,1.4056951E-1,-2.0525539E-1,-2.657738E-1,4.0134363E-2,-1.4625299E-1,-5.3671192E-2,7.1341574E-2,-5.1247362E-2,2.6318088E-1,1.0377175E-1,1.994093E-1,6.5832846E-2,-1.7948275E-2,2.2699913E-1,2.9363167E-1,-5.8581583E-2,-3.35186E-1,-8.119393E-3,-2.5869915E-1,1.09118365E-1],"categories":[],"categories_nodes":[],"categories_segments":[],"categories_sizes":[],"default_left":[1,0,0,0,0,0,0,0,0,0,1,0,0,0,0,0,0,0,1,0,0,0,0,1,0,0,0,1,0,0,0,1,0,0,1,0,0,0,0,0,0,0,0,0,0,0,0,0,0,0,0,0,0,0,0,0,0,0,0,0,0,0,0,0,0,0,0,0,0,0,0,0,0,0,0],"id":8,"left_children":[1,3,5,7,9,11,13,-1,-1,15,17,19,21,23,25,27,29,31,33,-1,35,37,-1,39,41,43,45,47,49,51,53,55,57,59,61,63,-1,-1,-1,65,-1,67,69,71,73,-1,-1,-1,-1,-1,-1,-1,-1,-1,-1,-1,-1,-1,-1,-1,-1,-1,-1,-1,-1,-1,-1,-1,-1,-1,-1,-1,-1,-1,-1],"loss_changes":[9.4766106E1,6.3437885E1,4.73375E1,5.145798E-1,3.1305485E1,5.583725E0,6.197453E0,0E0,0E0,4.9124466E1,2.542664E1,2.9382515E0,2.8245392E0,3.6788907E0,1.2137911E0,4.0578293E1,4.1836636E1,4.6772995E0,1.2574856E1,0E0,2.04957E0,4.7062683E-1,0E0,2.6180735E0,4.2323465E0,8.7151E-1,8.2331955E-1,1.4652241E1,1.6877224E1,2.7819939E1,1.6355656E1,4.181738E0,4.379792E0,5.3736E0,1.5961112E1,4.7696924E-1,0E0,0E0,0E0,2.5794725E0,0E0,3.553903E0,6.4740605E0,1.0541687E0,3.150717E0,0E0,0E0,0E0,0E0,0E0,0E0,0E0,0E0,0E0,0E0,0E0,0E0,0E0,0E0,0E0,0E0,0E0,0E0,0E0,0E0,0E0,0E0,0E0,0E0,0E0,0E0,0E0,0E0,0E0,0E0],"parents":[2147483647,0,0,1,1,2,2,3,3,4,4,5,5,6,6,9,9,10,10,11,11,12,12,13,13,14,14,15,15,16,16,17,17,18,18,20,20,21,21,23,23,24,24,25,25,26,26,27,27,28,28,29,29,30,30,31,31,32,32,33,33,34,34,35,35,39,39,41,41,42,42,43,43,44,44],"right_children":[2,4,6,8,10,12,14,-1,-1,16,18,20,22,24,26,28,30,32,34,-1,36,38,-1,40,42,44,46,48,50,52,54,56,58,60,62,64,-1,-1,-1,66,-1,68,70,72,74,-1,-1,-1,-1,-1,-1,-1,-1,-1,-1,-1,-1,-1,-1,-1,-1,-1,-1,-1,-1,-1,-1,-1,-1,-1,-1,-1,-1,-1,-1],"split_conditions":[1.75E2,2.2E1,1E0,1E0,4E0,8.472E3,2.9452E4,-6.971805E-2,-3.123238E-1,1E0,2.5892E4,1.302E4,1.025E1,1E0,2E0,1E0,1E0,1.3E1,-1.74E2,-1.9657747E-1,5.86E2,3E1,-9.559548E-2,6.7E1,1E0,4E0,6.4E1,-3.79E2,5.2E1,2.5037E4,3E0,7.9E1,4.495E3,1.522E3,4E1,5.25E0,-1.5431416E-1,6.3780956E-2,3.0927807E-1,1.3E1,-2.093632E-1,8E0,2.421E3,1E1,1.3786E4,-8.300927E-2,1.6246712E-1,-7.57576E-2,-2.4918647E-1,1.4490908E-1,-3.4879353E-2,-2.328799E-2,2.5013262E-1,-7.271473E-2,7.3168285E-2,1.4056951E-1,-2.0525539E-1,-2.657738E-1,4.0134363E-2,-1.4625299E-1,-5.3671192E-2,7.1341574E-2,-5.1247362E-2,2.6318088E-1,1.0377175E-1,1.994093E-1,6.5832846E-2,-1.7948275E-2,2.2699913E-1,2.9363167E-1,-5.8581583E-2,-3.35186E-1,-8.119393E-3,-2.5869915E-1,1.09118365E-1],"split_indices":[18,8,2,16,0,19,5,0,0,16,5,13,12,14,14,3,14,0,18,0,18,8,0,8,9,9,8,18,8,5,2,8,4,11,8,12,0,0,0,0,0,3,4,0,13,0,0,0,0,0,0,0,0,0,0,0,0,0,0,0,0,0,0,0,0,0,0,0,0,0,0,0,0,0,0],"split_type":[0,0,0,0,0,0,0,0,0,0,0,0,0,0,0,0,0,0,0,0,0,0,0,0,0,0,0,0,0,0,0,0,0,0,0,0,0,0,0,0,0,0,0,0,0,0,0,0,0,0,0,0,0,0,0,0,0,0,0,0,0,0,0,0,0,0,0,0,0,0,0,0,0,0,0],"sum_hessian":[2.5438062E3,2.2335464E3,3.102598E2,6.412758E1,2.1694187E3,1.4539525E2,1.6486455E2,1.4654887E0,6.266209E1,8.891362E2,1.2802826E3,1.2999176E1,1.3239607E2,1.5064735E2,1.421719E1,3.684689E2,5.206673E2,1.5202405E2,1.1282585E3,1.8275845E0,1.1171591E1,1.3123393E2,1.1621274E0,5.569536E1,9.4951996E1,1.1151688E1,3.065502E0,1.8155676E2,1.8691214E2,2.1261218E2,3.0805515E2,7.89896E1,7.303445E1,2.4708405E2,8.8117444E2,1.0126362E1,1.0452296E0,1.2980924E0,1.2993585E2,5.4543343E1,1.1520187E0,7.673513E1,1.8216866E1,4.5779586E0,6.573729E0,1.9012436E0,1.1642584E0,1.0631866E2,7.523811E1,8.796955E1,9.89426E1,4.1375923E1,1.7123625E2,1.0324022E2,2.0481491E2,7.656345E1,2.426146E0,3.485565E0,6.954888E1,1.5654431E2,9.053973E1,1.08169136E2,7.730053E2,4.3540077E0,5.772354E0,2.9057444E1,2.5485897E1,7.1984146E1,4.750988E0,1.0949063E1,7.2678022E0,3.4040759E0,1.1738825E0,3.2985947E0,3.2751343E0],"tree_param":{"num_deleted":"0","num_feature":"22","num_nodes":"75","size_leaf_vector":"1"}},{"base_weights":[1.5038184E-2,9.576089E-1,-1.4041056E-2,1.0094057E0,-1.8836205E-1,-1.0391397E0,8.814616E-3,3.9625205E-2,3.079739E-1,-3.1765613E-1,-3.854961E-2,1.7755833E-1,-6.1692435E-2,-1.3235275E-1,3.8043055E-1,1.8161984E-1,-1.1200969E-1,-3.73072E-1,3.806264E-1,6.5589E-1,1.0955782E-1,4.036155E-1,1.0793455E-1,-9.552771E-2,-6.468983E-1,-1.3248274E-1,1.3489419E-1,-9.547867E-2,1.5810251E-1,2.5732994E-2,2.445304E-1,-4.141489E-2,1.2670353E-1,2.6580054E-1,8.347821E-2,-2.4207397E-3,9.167767E-2,-4.1702528E-2,1.9762963E-2,-2.2790308E-1,4.297836E-2],"categories":[],"categories_nodes":[],"categories_segments":[],"categories_sizes":[],"default_left":[0,0,0,0,0,0,0,0,0,0,0,0,1,0,0,0,1,0,0,0,0,1,0,0,0,0,0,0,0,0,0,0,0,0,0,0,0,0,0,0,0],"id":9,"left_children":[1,3,5,7,-1,9,11,-1,-1,-1,-1,13,15,17,19,21,23,25,27,29,31,33,35,37,39,-1,-1,-1,-1,-1,-1,-1,-1,-1,-1,-1,-1,-1,-1,-1,-1],"loss_changes":[6.607835E1,6.5589294E0,5.4814213E1,9.228668E-1,0E0,7.799568E-1,2.7246279E1,0E0,0E0,0E0,0E0,4.2480766E1,1.979583E1,3.3203453E1,3.0380325E1,4.490493E0,1.17436905E1,1.0502262E1,8.966595E0,1.8278915E1,1.608838E1,3.9082937E0,4.8054094E0,9.134192E0,3.6605186E0,0E0,0E0,0E0,0E0,0E0,0E0,0E0,0E0,0E0,0E0,0E0,0E0,0E0,0E0,0E0,0E0],"parents":[2147483647,0,0,1,1,2,2,3,3,5,5,6,6,11,11,12,12,13,13,14,14,15,15,16,16,17,17,18,18,19,19,20,20,21,21,22,22,23,23,24,24],"right_children":[2,4,6,8,-1,10,12,-1,-1,-1,-1,14,16,18,20,22,24,26,28,30,32,34,36,38,40,-1,-1,-1,-1,-1,-1,-1,-1,-1,-1,-1,-1,-1,-1,-1,-1],"split_conditions":[4.06E2,8E0,2.2E1,-9.11E2,-1.8836205E-1,4E0,2E0,3.9625205E-2,3.079739E-1,-3.1765613E-1,-3.854961E-2,1E0,1.7013E4,3E0,1E0,1E0,8.5E1,1E0,-7.34E2,2.5037E4,3E0,-2.39E2,3E0,4E0,9.7E1,-1.3248274E-1,1.3489419E-1,-9.547867E-2,1.5810251E-1,2.5732994E-2,2.445304E-1,-4.141489E-2,1.2670353E-1,2.6580054E-1,8.347821E-2,-2.4207397E-3,9.167767E-2,-4.1702528E-2,1.9762963E-2,-2.2790308E-1,4.297836E-2],"split_indices":[11,0,8,13,0,7,0,0,0,0,0,16,19,3,14,14,8,6,13,5,3,13,7,15,8,0,0,0,0,0,0,0,0,0,0,0,0,0,0,0,0],"split_type":[0,0,0,0,0,0,0,0,0,0,0,0,0,0,0,0,0,0,0,0,0,0,0,0,0,0,0,0,0,0,0,0,0,0,0,0,0,0,0,0,0],"sum_hessian":[2.409315E3,7.114961E1,2.3381653E3,6.925058E1,1.899036E0,5.002513E1,2.2881401E3,1.4964389E0,6.775414E1,4.880581E1,1.2193236E0,6.73866E2,1.6142742E3,2.6673883E2,4.071272E2,2.7617978E2,1.3380944E3,1.8173235E2,8.50065E1,2.0114987E2,2.0597734E2,6.7709656E1,2.0847012E2,1.2992384E3,3.8855946E1,1.6818483E2,1.3547506E1,1.4517881E1,7.048862E1,4.4246845E1,1.5690302E2,1.15279144E2,9.06982E1,1.27144375E1,5.499522E1,1.3197453E2,7.64956E1,1.0236232E3,2.7561517E2,3.403653E1,4.819419E0],"tree_param":{"num_deleted":"0","num_feature":"22","num_nodes":"41","size_leaf_vector":"1"}},{"base_weights":[1.2396125E-2,9.2956215E-1,-9.940253E-3,9.9003196E-1,-1.5186447E-1,-1.0170213E0,7.6246983E-3,2.7326902E-2,3.0382895E-1,-1.7309379E-2,-3.1273198E-1,1.9921929E-1,-2.9765798E-2,1.3333806E-1,9.0232545E-1,-4.3775193E-2,7.664879E-1,2.4668013E-1,-2.387727E-1,3.0048838E-1,-2.4080427E-1,8.931994E-2,-9.244231E-2,3.00441E-1,6.553729E-2,5.4649007E-2,2.2201568E-1,-2.4865015E-1,-2.5996938E-2,1.3908464E-2,2.361281E-1,-7.5435966E-2,-2.0321555E-2,-1.7199878E-1,1.4281642E-1],"categories":[],"categories_nodes":[],"categories_segments":[],"categories_sizes":[],"default_left":[0,0,0,0,0,0,0,0,0,0,0,0,0,0,0,1,1,0,0,0,0,0,0,0,0,0,0,0,0,0,0,0,0,0,0],"id":10,"left_children":[1,3,5,7,-1,9,11,-1,-1,-1,-1,13,15,17,19,21,23,25,27,-1,-1,29,31,-1,33,-1,-1,-1,-1,-1,-1,-1,-1,-1,-1],"loss_changes":[4.7512783E1,5.288452E0,4.0068264E1,9.958496E-1,0E0,8.866997E-1,1.5958614E1,0E0,0E0,0E0,0E0,1.6728958E1,2.0827597E1,1.4135351E1,6.0508957E0,1.1880028E1,5.2519054E0,8.024179E0,6.968123E0,0E0,0E0,1.4688741E1,5.256794E0,0E0,2.679358E0,0E0,0E0,0E0,0E0,0E0,0E0,0E0,0E0,0E0,0E0],"parents":[2147483647,0,0,1,1,2,2,3,3,5,5,6,6,11,11,12,12,13,13,14,14,15,15,16,16,17,17,18,18,21,21,22,22,24,24],"right_children":[2,4,6,8,-1,10,12,-1,-1,-1,-1,14,16,18,20,22,24,26,28,-1,-1,30,32,-1,34,-1,-1,-1,-1,-1,-1,-1,-1,-1,-1],"split_conditions":[4.06E2,8E0,2.2E1,7.609E3,-1.5186447E-1,1E0,2.9138E4,2.7326902E-2,3.0382895E-1,-1.7309379E-2,-3.1273198E-1,6.864E3,1E0,7.8E1,3E0,4.2E1,-3.9E1,2.9136E4,1.2E1,3.0048838E-1,-2.4080427E-1,4E0,4.7E1,3.00441E-1,4E0,5.4649007E-2,2.2201568E-1,-2.4865015E-1,-2.5996938E-2,1.3908464E-2,2.361281E-1,-7.5435966E-2,-2.0321555E-2,-1.7199878E-1,1.4281642E-1],"split_indices":[11,0,8,19,0,16,5,0,0,0,0,13,1,8,9,8,18,5,12,0,0,15,8,0,0,0,0,0,0,0,0,0,0,0,0],"split_type":[0,0,0,0,0,0,0,0,0,0,0,0,0,0,0,0,0,0,0,0,0,0,0,0,0,0,0,0,0,0,0,0,0,0,0],"sum_hessian":[2.3178105E3,5.413958E1,2.263671E3,5.2249474E1,1.8901048E0,3.7829468E1,2.2258416E3,1.4121215E0,5.0837353E1,1.0608765E0,3.6768593E1,3.627463E2,1.8630952E3,3.3275656E2,2.998973E1,1.831811E3,3.128411E1,2.5532394E2,7.7432625E1,2.8729042E1,1.2606903E0,4.9024655E2,1.3415646E3,2.3108604E1,8.175506E0,2.2700801E2,2.8315931E1,1.4958746E1,6.2473877E1,4.6281955E2,2.7427011E1,1.7916359E2,1.1624009E3,3.0430954E0,5.13241E0],"tree_param":{"num_deleted":"0","num_feature":"22","num_nodes":"35","size_leaf_vector":"1"}},{"base_weights":[1.0232155E-2,8.990698E-1,-6.6802893E-3,9.696157E-1,-1.2320198E-1,-9.926353E-1,6.6383793E-3,2.2091879E-2,3.0003542E-1,-1.4774336E-2,-3.0759624E-1,1.1635281E-1,-3.591319E-2,5.386636E-2,7.1428305E-1,5.01239E-2,-1.1100331E-1,-4.4753656E-2,2.565207E-1,9.72917E-1,2.1886191E-1,5.733717E-2,-1.1045824E0,-7.835394E-2,-4.1796812E-1,-3.8536265E-2,2.126369E-1,2.3762505E-1,4.9082577E-2,9.721201E-2,2.9913828E-1,-1.5445656E-1,1.6316028E-1,1.3072492E-2,2.0139274E-1,-4.2295882E-1,-4.7346875E-2,-3.3466086E-2,5.135008E-2,-7.589075E-2,-2.862133E-1],"categories":[],"categories_nodes":[],"categories_segments":[],"categories_sizes":[],"default_left":[0,0,0,0,0,0,0,0,0,0,0,1,1,0,0,1,1,1,1,0,0,0,0,0,0,0,0,0,0,0,0,0,0,0,0,0,0,0,0,0,0],"id":11,"left_children":[1,3,5,7,-1,9,11,-1,-1,-1,-1,13,15,17,19,21,23,25,27,29,31,33,35,37,39,-1,-1,-1,-1,-1,-1,-1,-1,-1,-1,-1,-1,-1,-1,-1,-1],"loss_changes":[3.410037E1,4.3118744E0,2.9246723E1,1.0329132E0,0E0,8.6483955E-1,1.0265653E1,0E0,0E0,0E0,0E0,2.2920162E1,1.0242482E1,1.1152034E1,7.226301E0,6.219681E0,8.450077E0,2.3793928E1,8.957498E0,2.7157974E-1,5.3363366E0,6.185345E0,1.1179695E0,6.3668294E0,6.9356213E0,0E0,0E0,0E0,0E0,0E0,0E0,0E0,0E0,0E0,0E0,0E0,0E0,0E0,0E0,0E0,0E0],"parents":[2147483647,0,0,1,1,2,2,3,3,5,5,6,6,11,11,12,12,13,13,14,14,15,15,16,16,17,17,18,18,19,19,20,20,21,21,22,22,23,23,24,24],"right_children":[2,4,6,8,-1,10,12,-1,-1,-1,-1,14,16,18,20,22,24,26,28,30,32,34,36,38,40,-1,-1,-1,-1,-1,-1,-1,-1,-1,-1,-1,-1,-1,-1,-1,-1],"split_conditions":[4.06E2,8E0,2.2E1,-9.11E2,-1.2320198E-1,1E0,2E0,2.2091879E-2,3.0003542E-1,-1.4774336E-2,-3.0759624E-1,1.466E3,1.19E3,3E0,3.6075E4,1.875E1,7.6E1,6.864E3,2.6081E4,-1.0877E4,2E0,8E0,2E0,3.665E4,2E0,-3.8536265E-2,2.126369E-1,2.3762505E-1,4.9082577E-2,9.721201E-2,2.9913828E-1,-1.5445656E-1,1.6316028E-1,1.3072492E-2,2.0139274E-1,-4.2295882E-1,-4.7346875E-2,-3.3466086E-2,5.135008E-2,-7.589075E-2,-2.862133E-1],"split_indices":[11,0,8,13,0,16,0,0,0,0,0,11,11,3,5,12,8,13,5,13,9,3,7,5,14,0,0,0,0,0,0,0,0,0,0,0,0,0,0,0,0],"split_type":[0,0,0,0,0,0,0,0,0,0,0,0,0,0,0,0,0,0,0,0,0,0,0,0,0,0,0,0,0,0,0,0,0,0,0,0,0,0,0,0,0],"sum_hessian":[2.267056E3,4.1357212E1,2.2256985E3,3.9489883E1,1.8673298E0,2.868486E1,2.1970137E3,1.4125262E0,3.807736E1,1.0445031E0,2.7640356E1,6.134829E2,1.5835309E3,5.5642413E2,5.705878E1,7.3812787E2,8.45403E2,3.7480673E2,1.8161737E2,3.6854904E1,2.0203876E1,7.344899E2,3.6378977E0,7.6526337E2,8.0139626E1,3.3808334E2,3.6723404E1,2.573736E1,1.5588002E2,1.8430442E0,3.501186E1,6.022847E0,1.4181029E1,7.1943475E2,1.5055176E1,2.3810034E0,1.2568944E0,6.75887E2,8.937633E1,6.2404137E1,1.773549E1],"tree_param":{"num_deleted":"0","num_feature":"22","num_nodes":"41","size_leaf_vector":"1"}},{"base_weights":[8.412177E-3,8.645054E-1,-4.4310917E-3,9.465454E-1,-1.0027299E-1,-9.6458244E-1,5.7081906E-3,1.4157922E-2,2.958689E-1,-1.2610035E-2,-3.0186802E-1,1.1559966E-1,-2.5821447E-2,8.5046336E-2,8.123282E-1,-3.3853974E-2,6.4361054E-1,5.226656E-2,6.0447186E-1,2.8512603E-1,-1.9728927E-1,7.2991266E-3,-1.2542889E-1,3.1401595E-1,3.2678436E-2,-5.0981376E-2,5.182653E-2,2.3974319E-1,-2.6071554E-1,-3.402224E-2,1.9653141E-2,-8.6346585E-3,-1.2238509E-1,-1.2570252E-1,1.9148265E-1],"categories":[],"categories_nodes":[],"categories_segments":[],"categories_sizes":[],"default_left":[0,0,0,0,0,0,1,0,0,0,0,1,0,1,0,1,0,0,0,0,0,0,0,0,1,0,0,0,0,0,0,0,0,0,0],"id":12,"left_children":[1,3,5,7,-1,9,11,-1,-1,-1,-1,13,15,17,19,21,23,25,27,-1,-1,29,31,-1,33,-1,-1,-1,-1,-1,-1,-1,-1,-1,-1],"loss_changes":[2.4394482E1,3.541418E0,2.1292011E1,1.0581894E0,0E0,8.357544E-1,7.5032706E0,0E0,0E0,0E0,0E0,1.0208376E1,9.071071E0,7.862485E0,4.718402E0,6.2714214E0,4.8921204E0,1.1734647E1,8.562096E0,0E0,0E0,8.0803995E0,1.4076219E1,0E0,2.7249799E0,0E0,0E0,0E0,0E0,0E0,0E0,0E0,0E0,0E0,0E0],"parents":[2147483647,0,0,1,1,2,2,3,3,5,5,6,6,11,11,12,12,13,13,14,14,15,15,16,16,17,17,18,18,21,21,22,22,24,24],"right_children":[2,4,6,8,-1,10,12,-1,-1,-1,-1,14,16,18,20,22,24,26,28,-1,-1,30,32,-1,34,-1,-1,-1,-1,-1,-1,-1,-1,-1,-1],"split_conditions":[4.06E2,8E0,2.2E1,7.609E3,-1.0027299E-1,1E0,2.9138E4,1.4157922E-2,2.958689E-1,-1.2610035E-2,-3.0186802E-1,6.864E3,1E0,2.9136E4,3E0,6.2E1,-3.9E1,1E0,1.2E1,2.8512603E-1,-1.9728927E-1,2.9235E4,2E0,3.1401595E-1,4E1,-5.0981376E-2,5.182653E-2,2.3974319E-1,-2.6071554E-1,-3.402224E-2,1.9653141E-2,-8.6346585E-3,-1.2238509E-1,-1.2570252E-1,1.9148265E-1],"split_indices":[11,0,8,19,0,16,5,0,0,0,0,13,1,5,9,8,18,14,0,0,0,5,14,0,8,0,0,0,0,0,0,0,0,0,0],"split_type":[0,0,0,0,0,0,0,0,0,0,0,0,0,0,0,0,0,0,0,0,0,0,0,0,0,0,0,0,0,0,0,0,0,0,0],"sum_hessian":[2.217333E3,3.179305E1,2.18554E3,2.9953482E1,1.8395683E0,2.1854652E1,2.1636853E3,1.3583677E0,2.8595114E1,1.0307053E0,2.0823948E1,4.8179614E2,1.6818892E3,4.6263068E2,1.9165472E1,1.6628856E3,1.9003563E1,4.362035E2,2.64272E1,1.7842718E1,1.3227537E0,1.1479331E3,5.149525E2,1.1019373E1,7.984191E0,1.5322188E2,2.829816E2,2.3747503E1,2.6796963E0,3.7317407E2,7.747591E2,3.8451654E2,1.3043596E2,4.7497096E0,3.2344813E0],"tree_param":{"num_deleted":"0","num_feature":"22","num_nodes":"35","size_leaf_vector":"1"}},{"base_weights":[6.780325E-3,8.2513213E-1,-2.9603795E-3,9.0019333E-1,-1.5102151E-1,-9.319918E-1,4.7569494E-3,-1.9321784E-2,2.8879318E-1,-1.0762536E-2,-2.9532266E-1,3.713129E-2,-7.123723E-2,2.227377E-2,3.511865E-1,-1.2173288E-1,7.7424005E-2,3.1002194E-1,8.897735E-3,8.8101584E-1,1.8937647E-1,-1.8013358E-1,5.0428487E-2,-2.3682283E-1,2.011965E-1,1.5737586E-2,2.9492334E-1,3.3847798E-2,-8.920214E-3,3.563987E-1,-5.9085373E-2,1.0451099E-1,-1.0328349E-1,-8.873202E-2,-1.55545855E-2,1.7307857E-1,-8.388447E-3,2.2821029E-1,-1.18607946E-1,1.04308955E-1,-2.9152622E-3],"categories":[],"categories_nodes":[],"categories_segments":[],"categories_sizes":[],"default_left":[0,0,0,0,0,0,0,0,0,0,0,1,0,0,0,0,0,0,1,0,0,0,0,0,1,0,0,0,0,0,0,0,0,0,0,0,0,0,0,0,0],"id":13,"left_children":[1,3,5,7,-1,9,11,-1,-1,-1,-1,13,15,17,19,21,23,25,27,29,31,33,35,37,39,-1,-1,-1,-1,-1,-1,-1,-1,-1,-1,-1,-1,-1,-1,-1,-1],"loss_changes":[1.7374582E1,3.0098915E0,1.5452796E1,1.5454769E0,0E0,7.9872894E-1,5.262524E0,0E0,0E0,0E0,0E0,6.9908295E0,4.8065047E0,5.5135813E0,5.6359196E0,4.809016E0,6.3734293E0,1.0979717E1,5.5061407E0,5.3834114E0,4.6273746E0,5.276164E0,5.0391817E0,7.641206E0,3.625373E0,0E0,0E0,0E0,0E0,0E0,0E0,0E0,0E0,0E0,0E0,0E0,0E0,0E0,0E0,0E0,0E0],"parents":[2147483647,0,0,1,1,2,2,3,3,5,5,6,6,11,11,12,12,13,13,14,14,15,15,16,16,17,17,18,18,19,19,20,20,21,21,22,22,23,23,24,24],"right_children":[2,4,6,8,-1,10,12,-1,-1,-1,-1,14,16,18,20,22,24,26,28,30,32,34,36,38,40,-1,-1,-1,-1,-1,-1,-1,-1,-1,-1,-1,-1,-1,-1,-1,-1],"split_conditions":[4.06E2,1.6E1,2.2E1,2.5E0,-1.5102151E-1,1E0,1.6E1,-1.9321784E-2,2.8879318E-1,-1.0762536E-2,-2.9532266E-1,3.6781E4,3E0,-3.89E2,2E0,7.3E1,1E0,-4.991E3,8.93E2,8.107E3,6.864E3,3E0,9.1E1,5E0,4.435E3,1.5737586E-2,2.9492334E-1,3.3847798E-2,-8.920214E-3,3.563987E-1,-5.9085373E-2,1.0451099E-1,-1.0328349E-1,-8.873202E-2,-1.55545855E-2,1.7307857E-1,-8.388447E-3,2.2821029E-1,-1.18607946E-1,1.04308955E-1,-2.9152622E-3],"split_indices":[11,0,8,12,0,16,0,0,0,0,0,5,15,18,9,18,6,13,11,4,13,7,18,3,13,0,0,0,0,0,0,0,0,0,0,0,0,0,0,0,0],"split_type":[0,0,0,0,0,0,0,0,0,0,0,0,0,0,0,0,0,0,0,0,0,0,0,0,0,0,0,0,0,0,0,0,0,0,0,0,0,0,0,0,0],"sum_hessian":[2.1783298E3,2.4638643E1,2.1536912E3,2.36262E1,1.0124431E0,1.6756327E1,2.1369348E3,1.4347056E0,2.2191494E1,1.0190572E0,1.573727E1,1.498899E3,6.3803577E2,1.4322139E3,6.668515E1,4.7639886E2,1.616369E2,6.263428E1,1.3695796E3,1.4561233E1,5.2123917E1,3.5569385E2,1.20705025E2,4.5416157E1,1.1622075E2,4.6078873E1,1.6555408E1,3.7061655E2,9.989631E2,1.1254222E1,3.3070104E0,4.0426666E1,1.1697248E1,1.8637994E2,1.693139E2,1.4818438E1,1.0588659E2,5.707292E0,3.9708866E1,6.820047E1,4.802028E1],"tree_param":{"num_deleted":"0","num_feature":"22","num_nodes":"41","size_leaf_vector":"1"}},{"base_weights":[5.175161E-3,7.736048E-1,-2.1213733E-3,8.848094E-1,-7.2162956E-2,-8.94396E-1,3.7279637E-3,-5.9772176E-3,2.863973E-1,-9.185619E-3,-2.8781927E-1,8.879819E-3,-4.3307453E-1,2.6543934E-2,-1.1064489E-1,-1.1225851E-3,-7.609941E-1,-1.555347E-2,1.31906E-1,-3.9519E-2,-4.9493304E-1,-3.1816915E-1,8.9675164E-1,-1.113033E0,-1.2580942E-1,-4.77459E-2,1.2910853E-2,8.696991E-2,1.7302369E-3,-2.1789681E-2,3.4341645E-1,-2.7347487E-1,-4.580615E-2,1.5051723E-1,-2.0431899E-1,4.503087E-1,-5.881648E-2,-3.5408467E-1,-9.321782E-2,7.216641E-2,-2.2917128E-1],"categories":[],"categories_nodes":[],"categories_segments":[],"categories_sizes":[],"default_left":[0,0,0,0,0,0,1,0,0,0,0,0,0,0,1,0,0,0,1,1,0,0,0,1,0,0,0,0,0,0,0,0,0,0,0,0,0,0,0,0,0],"id":14,"left_children":[1,3,5,7,-1,9,11,-1,-1,-1,-1,13,15,17,19,21,23,25,27,29,31,33,35,37,39,-1,-1,-1,-1,-1,-1,-1,-1,-1,-1,-1,-1,-1,-1,-1,-1],"loss_changes":[1.2115133E1,2.5049639E0,1.1178443E1,1.1899843E0,0E0,7.538223E-1,4.793022E0,0E0,0E0,0E0,0E0,4.445889E0,3.515985E0,8.13769E0,7.3916645E0,3.6205177E0,3.0156317E0,1.1040871E1,1.0436148E1,9.097937E0,5.8870354E0,3.1375701E0,2.4862292E0,1.16285324E-1,1.6237766E0,0E0,0E0,0E0,0E0,0E0,0E0,0E0,0E0,0E0,0E0,0E0,0E0,0E0,0E0,0E0,0E0],"parents":[2147483647,0,0,1,1,2,2,3,3,5,5,6,6,11,11,12,12,13,13,14,14,15,15,16,16,17,17,18,18,19,19,20,20,21,21,22,22,23,23,24,24],"right_children":[2,4,6,8,-1,10,12,-1,-1,-1,-1,14,16,18,20,22,24,26,28,30,32,34,36,38,40,-1,-1,-1,-1,-1,-1,-1,-1,-1,-1,-1,-1,-1,-1,-1,-1],"split_conditions":[4.06E2,8E0,2.2E1,-9.11E2,-7.2162956E-2,1E0,8.8E1,-5.9772176E-3,2.863973E-1,-9.185619E-3,-2.8781927E-1,4E0,6.603E3,3E0,4.8E1,6.217E3,9.3E1,1E0,2.9992E4,3.7E1,8.8E1,8.02E2,2E0,1.8E1,1.35E1,-4.77459E-2,1.2910853E-2,8.696991E-2,1.7302369E-3,-2.1789681E-2,3.4341645E-1,-2.7347487E-1,-4.580615E-2,1.5051723E-1,-2.0431899E-1,4.503087E-1,-5.881648E-2,-3.5408467E-1,-9.321782E-2,7.216641E-2,-2.2917128E-1],"split_indices":[11,0,8,13,0,16,8,0,0,0,0,7,4,7,18,4,8,16,5,18,18,11,14,12,12,0,0,0,0,0,0,0,0,0,0,0,0,0,0,0,0],"split_type":[0,0,0,0,0,0,0,0,0,0,0,0,0,0,0,0,0,0,0,0,0,0,0,0,0,0,0,0,0,0,0,0,0,0,0,0,0,0,0,0,0],"sum_hessian":[2.1594717E3,1.9324282E1,2.1401475E3,1.7529636E1,1.7946465E0,1.29491E1,2.1271982E3,1.3075747E0,1.6222061E1,1.0092084E0,1.1939891E1,2.1033699E3,2.3828466E1,1.8332225E3,2.7014725E2,1.0716104E1,1.3112363E1,1.3104749E3,5.227477E2,2.2888666E2,4.12606E1,8.396776E0,2.319327E0,7.9525275E0,5.1598353E0,3.7924728E2,9.3122754E2,2.3149387E2,2.912538E2,2.2357384E2,5.3128166E0,1.7857437E1,2.3403162E1,2.458862E0,5.9379144E0,1.2529453E0,1.0663817E0,6.902824E0,1.0497036E0,3.673624E0,1.4862115E0],"tree_param":{"num_deleted":"0","num_feature":"22","num_nodes":"41","size_leaf_vector":"1"}},{"base_weights":[3.2025871E-3,7.225685E-1,-2.331736E-3,8.3576787E-1,-8.8617474E-2,-8.5165906E-1,2.1294022E-3,-1.2708624E-2,9.1833323E-1,-7.8397365E-3,-2.7925712E-1,4.0695027E-2,-4.756557E-2,2.8848597E-1,6.220476E-2,1.3929006E-2,9.7286767E-1,-7.953183E-2,6.0453534E-1,-5.4192156E-2,1.08836755E-1,1.034524E0,-4.738271E-2,3.6494818E-1,-1.1251233E-1,-3.3683318E-1,8.1627077E-1,-5.47372E-2,3.71379E-2,9.06562E-2,-4.862059E-3,3.280099E-1,-3.9137476E-3,-1.0651641E-1,1.8433718E-1,-5.272338E-2,1.6075132E-2,2.5271147E-1,-2.1838753E-1,3.347972E-1,1.0858012E-1],"categories":[],"categories_nodes":[],"categories_segments":[],"categories_sizes":[],"default_left":[0,0,0,0,0,0,1,0,0,0,0,1,0,0,0,0,0,0,0,0,0,0,0,0,0,0,0,0,0,0,0,0,0,0,0,0,0,0,0,0,0],"id":15,"left_children":[1,3,5,7,-1,9,11,-1,13,-1,-1,15,17,-1,-1,19,21,23,25,27,29,31,-1,33,35,37,39,-1,-1,-1,-1,-1,-1,-1,-1,-1,-1,-1,-1,-1,-1],"loss_changes":[8.521064E0,2.1298342E0,8.051701E0,1.124013E0,0E0,7.016249E-1,4.054328E0,0E0,2.2298717E-1,0E0,0E0,2.970455E1,1.9316925E1,0E0,0E0,7.4981174E0,2.4803162E0,1.2971394E1,8.907966E0,1.5439091E1,1.1720083E1,1.9649162E0,0E0,1.1206127E1,8.641534E0,4.607788E0,4.45084E0,0E0,0E0,0E0,0E0,0E0,0E0,0E0,0E0,0E0,0E0,0E0,0E0,0E0,0E0],"parents":[2147483647,0,0,1,1,2,2,3,3,5,5,6,6,8,8,11,11,12,12,15,15,16,16,17,17,18,18,19,19,20,20,21,21,23,23,24,24,25,25,26,26],"right_children":[2,4,6,8,-1,10,12,-1,14,-1,-1,16,18,-1,-1,20,22,24,26,28,30,32,-1,34,36,38,40,-1,-1,-1,-1,-1,-1,-1,-1,-1,-1,-1,-1,-1,-1],"split_conditions":[4.06E2,3E0,2.2E1,-9.11E2,-8.8617474E-2,1E0,3.6469E4,-1.2708624E-2,1.4998E4,-7.8397365E-3,-2.7925712E-1,3.006E4,1.01E2,2.8848597E-1,6.220476E-2,2E0,1.3E1,1E0,2E0,4.619E3,5E0,4.949E3,-4.738271E-2,4.7E1,4E0,2.713E3,1.4E1,-5.47372E-2,3.71379E-2,9.06562E-2,-4.862059E-3,3.280099E-1,-3.9137476E-3,-1.0651641E-1,1.8433718E-1,-5.272338E-2,1.6075132E-2,2.5271147E-1,-2.1838753E-1,3.347972E-1,1.0858012E-1],"split_indices":[11,9,8,13,0,16,5,0,13,0,0,5,8,0,0,7,0,9,2,13,3,13,0,8,15,13,0,0,0,0,0,0,0,0,0,0,0,0,0,0,0],"split_type":[0,0,0,0,0,0,0,0,0,0,0,0,0,0,0,0,0,0,0,0,0,0,0,0,0,0,0,0,0,0,0,0,0,0,0,0,0,0,0,0,0],"sum_hessian":[2.1389004E3,1.5340501E1,2.12356E3,1.3966386E1,1.3741146E0,1.0103553E1,2.1134563E3,1.2421665E0,1.2724219E1,1.0008699E0,9.102683E0,1.1900798E3,9.233766E2,1.1661704E1,1.0625156E0,1.1578488E3,3.223105E1,8.8106445E2,4.231212E1,6.7429474E2,4.8355405E2,3.0645292E1,1.5857562E0,6.016408E1,8.209004E2,7.660954E0,3.4651165E1,3.9186893E2,2.8242584E2,1.8935083E2,2.9420322E2,2.8974094E1,1.6711987E0,1.5374684E1,4.47894E1,5.9451306E2,2.2638733E2,1.6207715E0,6.0401826E0,2.0000687E1,1.4650479E1],"tree_param":{"num_deleted":"0","num_feature":"22","num_nodes":"41","size_leaf_vector":"1"}},{"base_weights":[3.4944364E-3,6.6268146E-1,-7.443697E-4,8.1056225E-1,-6.63348E-2,-8.0399287E-1,2.7046094E-3,-5.688861E-3,2.7440426E-1,-3.2298658E-2,-2.6513115E-1,1.3055665E-2,-1.7513669E-1,8.678482E-5,2.0417693E-1,-5.952441E-1,-6.468238E-2,6.545367E-2,-2.2953728E-2,2.9025584E-1,-8.766235E-2,-7.2386664E-1,4.3926183E-2,2.9625714E-1,-3.3513263E-1,8.7562725E-3,1.5128013E-1,-6.859875E-2,2.0957377E-3,-2.3462836E-1,1.0208641E-1,-1.6683397E-1,1.1801008E-1,-2.54984E-1,-1.19147E-1,-8.855079E-2,1.6886672E-1,1.986215E-1,-1.308432E-1,-1.6664301E-1,2.5293244E-2],"categories":[],"categories_nodes":[],"categories_segments":[],"categories_sizes":[],"default_left":[0,0,0,0,0,0,1,0,0,0,0,1,0,0,0,0,1,1,0,0,0,0,0,0,0,0,0,0,0,0,0,0,0,0,0,0,0,0,0,0,0],"id":16,"left_children":[1,3,5,7,-1,9,11,-1,-1,-1,-1,13,15,17,19,21,23,25,27,29,31,33,35,37,39,-1,-1,-1,-1,-1,-1,-1,-1,-1,-1,-1,-1,-1,-1,-1,-1],"loss_changes":[5.898518E0,1.94204E0,5.815411E0,1.0338049E0,0E0,4.03409E-1,3.8503397E0,0E0,0E0,0E0,0E0,4.8985653E0,5.299903E0,2.7903876E0,3.180293E0,1.9907875E0,9.101114E0,7.6694784E0,8.438485E0,5.481776E0,6.837561E0,4.8190403E-1,1.0345315E0,1.1013967E1,4.962347E0,0E0,0E0,0E0,0E0,0E0,0E0,0E0,0E0,0E0,0E0,0E0,0E0,0E0,0E0,0E0,0E0],"parents":[2147483647,0,0,1,1,2,2,3,3,5,5,6,6,11,11,12,12,13,13,14,14,15,15,16,16,17,17,18,18,19,19,20,20,21,21,22,22,23,23,24,24],"right_children":[2,4,6,8,-1,10,12,-1,-1,-1,-1,14,16,18,20,22,24,26,28,30,32,34,36,38,40,-1,-1,-1,-1,-1,-1,-1,-1,-1,-1,-1,-1,-1,-1,-1,-1],"split_conditions":[4.06E2,8E0,2.2E1,7.609E3,-6.63348E-2,2.0491E4,7.8E1,-5.688861E-3,2.7440426E-1,-3.2298658E-2,-2.6513115E-1,1.65E1,-4.98E2,2E0,2E0,1.8E1,1.248E3,1.466E3,-2.02E2,1E0,7.153E3,8.5E1,1E0,2E0,4E0,8.7562725E-3,1.5128013E-1,-6.859875E-2,2.0957377E-3,-2.3462836E-1,1.0208641E-1,-1.6683397E-1,1.1801008E-1,-2.54984E-1,-1.19147E-1,-8.855079E-2,1.6886672E-1,1.986215E-1,-1.308432E-1,-1.6664301E-1,2.5293244E-2],"split_indices":[11,0,8,19,0,19,8,0,0,0,0,12,13,0,14,12,13,11,18,16,4,8,6,14,15,0,0,0,0,0,0,0,0,0,0,0,0,0,0,0,0],"split_type":[0,0,0,0,0,0,0,0,0,0,0,0,0,0,0,0,0,0,0,0,0,0,0,0,0,0,0,0,0,0,0,0,0,0,0,0,0,0,0,0,0],"sum_hessian":[2.1098354E3,1.2487818E1,2.0973477E3,1.0768801E1,1.7190171E0,7.974693E0,2.089373E3,1.292129E0,9.476671E0,1.0612451E0,6.913448E0,1.9753279E3,1.1404518E2,1.8507428E3,1.2458505E2,2.2828619E1,9.121656E1,4.8185617E2,1.3688866E3,9.621235E1,2.8372707E1,1.8894003E1,3.9346175E0,3.9030937E1,5.2185623E1,4.4605786E2,3.5798306E1,1.730761E2,1.1958105E3,3.6365948E0,9.257575E1,1.4295211E1,1.4077497E1,1.2477357E1,6.416645E0,2.6405127E0,1.2941048E0,2.6093811E1,1.2937126E1,3.400017E1,1.8185452E1],"tree_param":{"num_deleted":"0","num_feature":"22","num_nodes":"41","size_leaf_vector":"1"}},{"base_weights":[2.0775779E-3,-7.557466E-1,4.748717E-3,-2.5997785E-1,-2.5388988E-2,6.035933E-1,1.5112936E-3,7.6227695E-1,-5.4247975E-2,4.3458E-3,-5.443921E-1,-4.7190143E-3,2.659551E-1,-4.4002547E-3,3.2196298E-1,-9.1296995E-1,2.2987254E-2,-1.984272E-3,-8.2815015E-1,-6.8551965E-2,4.5947775E-1,-4.7289985E-3,-3.8152406E-1,1.6839644E-1,-4.899002E-1,6.1102374E-4,-1.0842741E-1,2.0369868E-1,-3.876014E-1,-1.8825865E-1,8.742072E-2,1.4969514E-1,-1.6644116E-1,-1.1899807E-3,-2.1964872E-1],"categories":[],"categories_nodes":[],"categories_segments":[],"categories_sizes":[],"default_left":[0,1,0,0,0,0,1,0,0,1,0,0,0,1,0,0,0,1,0,0,0,0,0,0,0,0,0,0,0,0,0,0,0,0,0],"id":17,"left_children":[1,3,5,-1,-1,7,9,11,-1,13,15,-1,-1,17,19,21,23,25,27,29,31,-1,-1,-1,33,-1,-1,-1,-1,-1,-1,-1,-1,-1,-1],"loss_changes":[4.24563E0,4.746809E-1,4.0495257E0,0E0,0E0,1.5358686E0,3.219355E0,9.354391E-1,0E0,5.749614E0,2.2684453E0,0E0,0E0,4.0081325E0,3.0101447E0,2.0849795E0,1.7128353E0,2.9056854E0,4.9946113E0,3.2644064E0,1.9257803E0,0E0,0E0,0E0,3.739047E-1,0E0,0E0,0E0,0E0,0E0,0E0,0E0,0E0,0E0,0E0],"parents":[2147483647,0,0,1,1,2,2,5,5,6,6,7,7,9,9,10,10,13,13,14,14,15,15,16,16,17,17,18,18,19,19,20,20,24,24],"right_children":[2,4,6,-1,-1,8,10,12,-1,14,16,-1,-1,18,20,22,24,26,28,30,32,-1,-1,-1,34,-1,-1,-1,-1,-1,-1,-1,-1,-1,-1],"split_conditions":[2.2E1,1.3E1,4.06E2,-2.5997785E-1,-2.5388988E-2,8E0,5.94E2,7.609E3,-5.4247975E-2,5.32E2,8E0,-4.7190143E-3,2.659551E-1,1.4135E4,5E0,1E0,1.3E1,8.8E1,5E0,1.445E4,4E0,-4.7289985E-3,-3.8152406E-1,1.6839644E-1,7.1E1,6.1102374E-4,-1.0842741E-1,2.0369868E-1,-3.876014E-1,-1.8825865E-1,8.742072E-2,1.4969514E-1,-1.6644116E-1,-1.1899807E-3,-2.1964872E-1],"split_indices":[8,12,11,0,0,0,18,19,0,18,0,0,0,13,3,6,0,8,3,13,7,0,0,0,8,0,0,0,0,0,0,0,0,0,0],"split_type":[0,0,0,0,0,0,0,0,0,0,0,0,0,0,0,0,0,0,0,0,0,0,0,0,0,0,0,0,0,0,0,0,0,0,0],"sum_hessian":[2.0946072E3,6.3667865E0,2.0882405E3,5.214289E0,1.1524976E0,1.0231435E1,2.078009E3,8.533404E0,1.6980305E0,2.068262E3,9.747043E0,1.2953215E0,7.2380824E0,2.0137953E3,5.4466656E1,5.5394416E0,4.207601E0,2.0089058E3,4.889527E0,1.4315354E1,4.0151302E1,1.880569E0,3.6588728E0,2.0068002E0,2.200801E0,1.9876643E3,2.1241432E1,1.0415462E0,3.8479805E0,5.316284E0,8.99907E0,3.9135044E1,1.0162587E0,1.0703158E0,1.1304849E0],"tree_param":{"num_deleted":"0","num_feature":"22","num_nodes":"35","size_leaf_vector":"1"}},{"base_weights":[1.3714462E-3,-6.99599E-1,3.456132E-3,-7.4701207E-3,-2.4772905E-1,5.429216E-1,9.726342E-4,4.749611E-2,2.5497654E-1,1.4385477E-2,-8.7399624E-2,3.3937472E-1,-1.2854834E-1,-1.7337041E-2,9.146095E-2,-1.9993187E-1,8.881414E-2,-5.3722907E-2,1.8691903E-1,1.5703453E-2,-1.3755293E-1,-2.340046E-1,1.358429E-1,1.8370515E-1,-3.0881983E-1,2.4362113E-1,-2.9449102E-1,3.326665E-5,1.15127735E-1,1.10325634E-1,-6.078476E-2,-1.5029578E-1,1.3362202E-1,3.288892E-1,3.7612736E-2,1.4232779E-1,-1.4165998E-1,3.2623574E-1,-1.0336682E-1,1.0785258E-1,-5.8210246E-2,-1.8172807E-1,6.1118454E-2],"categories":[],"categories_nodes":[],"categories_segments":[],"categories_sizes":[],"default_left":[0,0,0,0,0,0,0,0,0,0,0,0,0,1,0,0,0,0,0,1,0,0,0,1,0,1,0,0,0,0,0,0,0,0,0,0,0,0,0,0,0,0,0],"id":18,"left_children":[1,3,5,-1,-1,7,9,11,-1,13,15,17,-1,19,21,23,25,-1,-1,27,29,31,33,35,37,39,41,-1,-1,-1,-1,-1,-1,-1,-1,-1,-1,-1,-1,-1,-1,-1,-1],"loss_changes":[3.0551004E0,5.0713444E-1,2.7912862E0,0E0,0E0,1.4117429E0,2.4611197E0,8.00053E-1,0E0,4.4091287E0,5.4434085E0,6.232444E-1,0E0,5.0779333E0,7.6263475E0,7.0448227E0,6.440318E0,0E0,0E0,5.75776E0,9.135394E0,1.1734046E1,4.5202503E0,7.3958216E0,6.895033E0,3.9749742E0,4.98192E0,0E0,0E0,0E0,0E0,0E0,0E0,0E0,0E0,0E0,0E0,0E0,0E0,0E0,0E0,0E0,0E0],"parents":[2147483647,0,0,1,1,2,2,5,5,6,6,7,7,9,9,10,10,11,11,13,13,14,14,15,15,16,16,19,19,20,20,21,21,22,22,23,23,24,24,25,25,26,26],"right_children":[2,4,6,-1,-1,8,10,12,-1,14,16,18,-1,20,22,24,26,-1,-1,28,30,32,34,36,38,40,42,-1,-1,-1,-1,-1,-1,-1,-1,-1,-1,-1,-1,-1,-1,-1,-1],"split_conditions":[2.2E1,1E0,4.06E2,-7.4701207E-3,-2.4772905E-1,3.56E2,4E0,1E0,2.5497654E-1,3E0,6.4E1,4.619E3,-1.2854834E-1,6.4E1,1E0,3.8E1,2E0,-5.3722907E-2,1.8691903E-1,3.677E4,7.85E2,7E0,3E1,2.052E3,-4.31E2,8E1,-1.24E2,3.326665E-5,1.15127735E-1,1.10325634E-1,-6.078476E-2,-1.5029578E-1,1.3362202E-1,3.288892E-1,3.7612736E-2,1.4232779E-1,-1.4165998E-1,3.2623574E-1,-1.0336682E-1,1.0785258E-1,-5.8210246E-2,-1.8172807E-1,6.1118454E-2],"split_indices":[8,3,11,0,0,11,7,15,0,7,8,13,0,8,14,8,14,0,0,5,11,3,8,13,18,8,18,0,0,0,0,0,0,0,0,0,0,0,0,0,0,0,0],"split_type":[0,0,0,0,0,0,0,0,0,0,0,0,0,0,0,0,0,0,0,0,0,0,0,0,0,0,0,0,0,0,0,0,0,0,0,0,0,0,0,0,0,0,0],"sum_hessian":[2.088014E3,5.19922E0,2.0828147E3,1.0076898E0,4.19153E0,8.547349E0,2.0742673E3,3.7119124E0,4.835437E0,1.8016553E3,2.7261194E2,2.478874E0,1.2330383E0,1.276891E3,5.247643E2,1.6628543E2,1.063265E2,1.0071075E0,1.4717665E0,1.0022884E3,2.7460257E2,6.2459377E1,4.6230493E2,3.661066E1,1.2967477E2,7.5997505E1,3.0328995E1,9.625122E2,3.977623E1,3.0793734E1,2.4380884E2,4.502786E1,1.7431519E1,3.8655844E0,4.5843936E2,2.5558775E1,1.1051886E1,2.50164E0,1.27173134E2,6.0228153E1,1.576935E1,1.8533863E1,1.1795133E1],"tree_param":{"num_deleted":"0","num_feature":"22","num_nodes":"43","size_leaf_vector":"1"}},{"base_weights":[9.854728E-4,-5.510839E-1,2.9886665E-3,1.00554705E-1,-8.508202E-1,6.925152E-1,1.4108999E-3,-2.9506883E-1,-6.575498E-2,9.630235E-1,-3.8913436E-2,3.7904945E-3,-4.3673855E-1,4.1598207E-1,8.351691E-3,-2.7587495E-3,2.572521E-1,-6.5760934E-1,-8.858812E-2,-1.802545E-2,7.381857E-2,3.571956E-1,-2.7964044E-1,-5.6857187E-3,-2.7119526E-1,3.2031867E-1,-4.2559946E-1,6.5878117E-3,-2.0138571E-2,-7.9057194E-2,3.780558E-2,-1.5397993E-4,1.3905908E-1,2.1153767E-1,-1.9443005E-1,1.9302593E-1,-4.8962776E-2,-1.7803487E-1,-8.547968E-3],"categories":[],"categories_nodes":[],"categories_segments":[],"categories_sizes":[],"default_left":[0,0,0,0,1,0,1,0,0,0,0,1,0,0,0,0,0,0,0,0,0,0,0,0,0,1,1,0,0,0,0,0,0,0,0,0,0,0,0],"id":19,"left_children":[1,3,5,-1,7,9,11,-1,-1,13,-1,15,17,-1,-1,19,21,23,25,27,29,31,33,-1,-1,35,37,-1,-1,-1,-1,-1,-1,-1,-1,-1,-1,-1,-1],"loss_changes":[2.3027256E0,2.284977E0,2.255567E0,0E0,2.797861E-1,1.1776869E0,2.1603587E0,0E0,0E0,1.4192507E0,0E0,3.4207232E0,8.024113E-1,0E0,0E0,2.3504467E0,2.8850758E0,1.035908E0,8.942874E-1,3.2924213E0,5.9182625E0,1.6814156E0,3.6162257E0,0E0,0E0,5.823829E-1,2.1268755E-1,0E0,0E0,0E0,0E0,0E0,0E0,0E0,0E0,0E0,0E0,0E0,0E0],"parents":[2147483647,0,0,1,1,2,2,4,4,5,5,6,6,9,9,11,11,12,12,15,15,16,16,17,17,18,18,19,19,20,20,21,21,22,22,25,25,26,26],"right_children":[2,4,6,-1,8,10,12,-1,-1,14,-1,16,18,-1,-1,20,22,24,26,28,30,32,34,-1,-1,36,38,-1,-1,-1,-1,-1,-1,-1,-1,-1,-1,-1,-1],"split_conditions":[2.5E1,3E0,2.7E1,1.00554705E-1,1.325E1,2E0,5.94E2,-2.9506883E-1,-6.575498E-2,1.3E1,-3.8913436E-2,5.32E2,8E0,4.1598207E-1,8.351691E-3,4E0,5.5E0,1E0,1.3E1,7E0,1E0,5.7E1,1E0,-5.6857187E-3,-2.7119526E-1,4.7E1,4.3E1,6.5878117E-3,-2.0138571E-2,-7.9057194E-2,3.780558E-2,-1.5397993E-4,1.3905908E-1,2.1153767E-1,-1.9443005E-1,1.9302593E-1,-4.8962776E-2,-1.7803487E-1,-8.547968E-3],"split_indices":[8,3,8,0,12,14,18,0,0,12,0,18,0,0,0,15,12,6,0,0,14,8,14,0,0,8,8,0,0,0,0,0,0,0,0,0,0,0,0],"split_type":[0,0,0,0,0,0,0,0,0,0,0,0,0,0,0,0,0,0,0,0,0,0,0,0,0,0,0,0,0,0,0,0,0,0,0,0,0,0,0],"sum_hessian":[2.0797256E3,6.5280485E0,2.0731975E3,1.6199349E0,4.9081135E0,3.7332783E0,2.069464E3,3.5953608E0,1.3127526E0,2.680251E0,1.0530274E0,2.0592717E3,1.0192578E1,1.5124782E0,1.1677727E0,2.0083662E3,5.090545E1,5.6923914E0,4.5001864E0,1.6751646E3,3.332016E2,4.3198647E1,7.7068033E0,1.8844396E0,3.8079517E0,2.0555964E0,2.4445903E0,9.2361487E2,7.515497E2,4.410766E1,2.8909393E2,1.0126927E1,3.3071716E1,1.84964E0,5.8571634E0,1.0339901E0,1.0216062E0,1.3707587E0,1.0738317E0],"tree_param":{"num_deleted":"0","num_feature":"22","num_nodes":"39","size_leaf_vector":"1"}},{"base_weights":[7.2728173E-4,7.37296E-2,-1.3036782E-2,3.2229587E-2,7.372154E-1,-1.8753106E-2,4.8121813E-1,-9.995618E-3,5.515374E-1,9.1575104E-1,-2.1021508E-1,-1.7379819E-1,1.1990956E-3,8.032015E-1,-8.475057E-2,-9.058023E-2,1.7401102E-1,7.9840577E-1,-4.371186E-1,6.8783656E-2,2.8450596E-1,-5.958203E-1,2.537406E-3,-1.7755173E-2,1.8715255E-1,3.3070496E-1,2.820329E-1,-6.914141E-1,3.6029115E-1,2.7213851E-2,-2.8706563E-1,-4.4949627E-1,2.539453E-1,2.87533E-1,-1.102E-1,3.682618E-1,-3.4035993E-1,-7.792288E-1,3.0001682E-1,6.946016E-1,-1.330117E-1,2.7000554E-2,-8.8603325E-2,-1.5679078E-2,7.4911046E-1,2.1064858E-1,-9.031963E-2,-4.5198917E-1,1.782917E-1,-1.0693989E-1,1.9007489E-1,5.5106197E-2,-5.6810763E-2,-1.3684005E-1,2.2668796E-2,-1.9723092E-1,2.0834775E-1,1.0093428E-2,1.635408E-1,-4.146923E-2,2.072062E-1,-2.59585E-1,1.1603591E-1,3.7499452E-1,-1.6541556E-1,2.6230183E-1,-4.244125E-1,-7.2931625E-2,3.313566E-1,1.1976498E-1,1.4355469E-3,-1.093022E-1,-1.653062E-2,-2.2902669E-1,2.0517891E-2,3.235874E-1,1.0278437E-1],"categories":[],"categories_nodes":[],"categories_segments":[],"categories_sizes":[],"default_left":[0,0,0,0,0,0,1,0,0,0,0,0,0,0,0,0,0,0,0,0,0,0,0,1,0,0,0,1,0,0,0,0,1,0,0,0,0,0,0,0,0,0,0,0,0,0,0,0,0,0,0,0,0,0,0,0,0,0,0,0,0,0,0,0,0,0,0,0,0,0,0,0,0,0,0,0,0],"id":20,"left_children":[1,3,5,7,9,11,13,15,17,19,-1,21,23,25,27,29,31,33,35,-1,-1,37,39,41,43,45,-1,47,49,51,53,55,57,-1,-1,59,-1,61,63,65,67,69,71,73,75,-1,-1,-1,-1,-1,-1,-1,-1,-1,-1,-1,-1,-1,-1,-1,-1,-1,-1,-1,-1,-1,-1,-1,-1,-1,-1,-1,-1,-1,-1,-1,-1],"loss_changes":[2.0866106E0,9.04674E0,4.945559E0,6.8267264E0,5.608261E0,5.3464813E0,3.7153325E0,4.296123E0,6.0624995E0,1.7741871E-1,0E0,1.46655035E1,5.4036727E0,5.204992E-1,2.4527783E0,4.669326E0,4.5129433E0,3.9127645E0,3.4079988E0,0E0,0E0,9.775711E0,1.3223301E1,4.4142237E0,1.6176321E1,1.2510215E0,0E0,4.8745923E0,1.2768826E0,4.333035E0,4.6678824E0,2.928207E0,5.0410566E0,0E0,0E0,6.222224E-1,0E0,5.1995544E0,9.255506E0,9.989488E0,1.6330278E1,7.055367E0,4.958017E0,6.6645336E0,4.6710815E0,0E0,0E0,0E0,0E0,0E0,0E0,0E0,0E0,0E0,0E0,0E0,0E0,0E0,0E0,0E0,0E0,0E0,0E0,0E0,0E0,0E0,0E0,0E0,0E0,0E0,0E0,0E0,0E0,0E0,0E0,0E0,0E0],"parents":[2147483647,0,0,1,1,2,2,3,3,4,4,5,5,6,6,7,7,8,8,9,9,11,11,12,12,13,13,14,14,15,15,16,16,17,17,18,18,21,21,22,22,23,23,24,24,25,25,27,27,28,28,29,29,30,30,31,31,32,32,35,35,37,37,38,38,39,39,40,40,41,41,42,42,43,43,44,44],"right_children":[2,4,6,8,10,12,14,16,18,20,-1,22,24,26,28,30,32,34,36,-1,-1,38,40,42,44,46,-1,48,50,52,54,56,58,-1,-1,60,-1,62,64,66,68,70,72,74,76,-1,-1,-1,-1,-1,-1,-1,-1,-1,-1,-1,-1,-1,-1,-1,-1,-1,-1,-1,-1,-1,-1,-1,-1,-1,-1,-1,-1,-1,-1,-1,-1],"split_conditions":[2.9138E4,6.864E3,1E0,2.9136E4,3E0,3E0,-3.9E1,2.0602E4,3E0,7.07E3,-2.1021508E-1,2.9199E4,1.02E2,5.1E1,4E0,6.8E1,-7.857E3,1E0,1.2E1,6.8783656E-2,2.8450596E-1,3E0,2.713E3,-2.2E1,2.9376E4,1.5026E4,2.820329E-1,4.2E1,6E0,5.02E2,1E0,1.0514E4,5.4E1,2.87533E-1,-1.102E-1,5E0,-3.4035993E-1,1E0,1E0,2E0,2E0,1E0,4.708E3,-2.05E2,1.3E1,2.1064858E-1,-9.031963E-2,-4.5198917E-1,1.782917E-1,-1.0693989E-1,1.9007489E-1,5.5106197E-2,-5.6810763E-2,-1.3684005E-1,2.2668796E-2,-1.9723092E-1,2.0834775E-1,1.0093428E-2,1.635408E-1,-4.146923E-2,2.072062E-1,-2.59585E-1,1.1603591E-1,3.7499452E-1,-1.6541556E-1,2.6230183E-1,-4.244125E-1,-7.2931625E-2,3.313566E-1,1.1976498E-1,1.4355469E-3,-1.093022E-1,-1.653062E-2,-2.2902669E-1,2.0517891E-2,3.235874E-1,1.0278437E-1],"split_indices":[5,13,1,5,9,2,18,19,3,13,0,5,8,8,0,8,13,14,0,0,0,3,13,18,5,4,0,8,3,13,6,4,8,0,0,3,0,6,0,3,14,0,13,18,0,0,0,0,0,0,0,0,0,0,0,0,0,0,0,0,0,0,0,0,0,0,0,0,0,0,0,0,0,0,0,0,0],"split_type":[0,0,0,0,0,0,0,0,0,0,0,0,0,0,0,0,0,0,0,0,0,0,0,0,0,0,0,0,0,0,0,0,0,0,0,0,0,0,0,0,0,0,0,0,0,0,0,0,0,0,0,0,0,0,0,0,0,0,0,0,0,0,0,0,0,0,0,0,0,0,0,0,0,0,0,0,0],"sum_hessian":[2.0746687E3,3.2842105E2,1.7462476E3,3.1007492E2,1.834613E1,1.7272333E3,1.901432E1,2.8766544E2,2.2409483E1,1.6642876E1,1.7032546E0,1.9605025E2,1.531183E3,1.18523035E1,7.1620173E0,2.0040639E2,8.7259056E1,1.8085861E1,4.3236227E0,1.1187639E0,1.5524112E1,5.7074802E1,1.3897543E2,1.3903672E3,1.4081586E2,3.4300528E0,8.422251E0,2.7964337E0,4.3655834E0,1.2583132E2,7.457507E1,9.390157E0,7.78689E1,1.6059032E1,2.0268276E0,2.2255266E0,2.0980964E0,4.748348E1,9.591325E0,2.2086332E1,1.1688911E2,8.524696E2,5.378976E2,1.0418404E2,3.6631813E1,2.0898697E0,1.3401831E0,1.606198E0,1.1902357E0,1.1210591E0,3.2445245E0,7.3141266E1,5.2690052E1,5.068595E1,2.3889118E1,8.305752E0,1.0844046E0,4.496565E1,3.2903248E1,1.0878774E0,1.1376492E0,4.4460136E1,3.0233421E0,4.312E0,5.279325E0,2.089161E1,1.1947232E0,1.0807782E2,8.811283E0,4.705748E1,8.054121E2,5.7203094E1,4.8069446E2,9.713233E0,9.44708E1,1.9318424E1,1.731339E1],"tree_param":{"num_deleted":"0","num_feature":"22","num_nodes":"77","size_leaf_vector":"1"}},{"base_weights":[1.4120816E-3,-6.4920425E-2,1.5872123E-2,-3.388332E-1,4.8962064E-2,7.24129E-1,6.623447E-3,-5.8371943E-1,-1.4646606E-1,-3.497476E-1,9.854432E-2,-4.8117703E-1,8.82442E-1,1.673068E-2,-1.11547574E-1,-6.833028E-1,-4.381592E-2,4.9506178E-1,-2.7847204E-1,2.048255E-1,-4.4335324E-1,3.2185102E-1,-7.992931E-2,-2.1292558E-1,-1.1901371E-2,1.2000023E0,2.4427558E-1,1.07428385E-2,8.0068606E-1,-6.6879773E-1,-4.7173303E-2,-8.0859846E-1,-4.533262E-1,-1.9397804E-1,4.5093197E-1,-1.8153517E-1,1.3671284E0,2.6693723E-1,-4.1587782E-1,-1.0124778E0,-2.6335257E-1,1.733456E-1,1.121145E0,-2.6088792E-1,1.2809399E-1,1.2937108E0,4.2894512E-2,5.2410203E-1,-1.2607452E-1,5.1127607E-1,6.9238315E-3,1.0351989E0,-7.8647435E-2,1.7986415E-1,-8.5084164E-1,-6.688514E-1,2.9143251E-2,-3.0257496E-1,-1.5661265E-1,-3.5269592E-2,-2.343534E-1,5.5957013E-1,-1.3047086E-1,-2.4310249E-1,8.2341954E-2,5.5403113E-1,8.348959E-2,-1.02136694E-1,2.3566043E-1,-1.8089877E-1,3.3927506E-3,-1.7967653E-1,-4.1298744E-1,1.410119E-1,-1.5739626E-1,8.578154E-2,-5.7162598E-2,5.5526084E-1,2.7500367E-1,-1.2337091E-1,8.8004634E-2,1.3217777E-1,-7.6045856E-2,4.182657E-1,4.9892142E-2,1.9462165E-1,3.555621E-2,-7.3305964E-2,5.123643E-1,4.3837843E-3,-4.956999E-2,4.250311E-1,3.175595E-2,-6.722514E-2,-5.0361097E-1,-1.744356E-2,-3.0685946E-1,6.387491E-2,-5.755798E-2],"categories":[],"categories_nodes":[],"categories_segments":[],"categories_sizes":[],"default_left":[0,0,0,0,0,0,1,0,0,0,0,0,0,1,0,0,0,0,1,0,0,0,0,0,0,1,1,0,0,0,0,0,0,0,0,0,0,0,0,0,0,0,0,0,1,0,0,0,0,0,1,0,0,0,0,0,0,0,0,0,0,0,0,0,0,0,0,0,0,0,0,0,0,0,0,0,0,0,0,0,0,0,0,0,0,0,0,0,0,0,0,0,0,0,0,0,0,0,0],"id":21,"left_children":[1,3,5,7,9,11,13,15,17,19,21,23,25,27,29,31,33,35,37,-1,39,41,43,-1,-1,45,47,49,51,53,55,57,59,-1,61,63,65,67,69,71,73,75,77,79,81,83,-1,85,-1,87,89,91,-1,-1,93,95,97,-1,-1,-1,-1,-1,-1,-1,-1,-1,-1,-1,-1,-1,-1,-1,-1,-1,-1,-1,-1,-1,-1,-1,-1,-1,-1,-1,-1,-1,-1,-1,-1,-1,-1,-1,-1,-1,-1,-1,-1,-1,-1],"loss_changes":[1.9575094E0,1.14107E1,1.0970419E1,4.973586E0,5.1521354E0,4.5439262E0,1.9784552E0,2.4923067E0,5.344417E0,3.091183E0,9.232975E0,2.9007953E-1,3.6453943E0,7.151847E0,4.6506405E0,7.727375E-1,2.7888415E0,6.651233E0,3.9802246E0,0E0,2.5054665E0,1.2010423E1,4.897037E0,0E0,0E0,1.075098E0,1.6545173E0,2.892125E0,3.1499648E0,3.6135302E0,5.6218147E0,8.670683E-1,1.6936691E0,0E0,7.311142E0,2.2277699E0,2.023304E0,3.731921E0,3.3345299E0,1.0174036E-1,4.4452815E0,3.6555674E0,6.797924E-1,5.905723E0,7.3588996E0,1.078167E0,0E0,2.1997333E-1,0E0,1.0776398E1,1.9937258E0,3.276783E0,0E0,0E0,5.9369984E0,2.7408276E0,4.3512425E0,0E0,0E0,0E0,0E0,0E0,0E0,0E0,0E0,0E0,0E0,0E0,0E0,0E0,0E0,0E0,0E0,0E0,0E0,0E0,0E0,0E0,0E0,0E0,0E0,0E0,0E0,0E0,0E0,0E0,0E0,0E0,0E0,0E0,0E0,0E0,0E0,0E0,0E0,0E0,0E0,0E0,0E0],"parents":[2147483647,0,0,1,1,2,2,3,3,4,4,5,5,6,6,7,7,8,8,9,9,10,10,11,11,12,12,13,13,14,14,15,15,16,16,17,17,18,18,20,20,21,21,22,22,25,25,26,26,27,27,28,28,29,29,30,30,31,31,32,32,34,34,35,35,36,36,37,37,38,38,39,39,40,40,41,41,42,42,43,43,44,44,45,45,47,47,49,49,50,50,51,51,54,54,55,55,56,56],"right_children":[2,4,6,8,10,12,14,16,18,20,22,24,26,28,30,32,34,36,38,-1,40,42,44,-1,-1,46,48,50,52,54,56,58,60,-1,62,64,66,68,70,72,74,76,78,80,82,84,-1,86,-1,88,90,92,-1,-1,94,96,98,-1,-1,-1,-1,-1,-1,-1,-1,-1,-1,-1,-1,-1,-1,-1,-1,-1,-1,-1,-1,-1,-1,-1,-1,-1,-1,-1,-1,-1,-1,-1,-1,-1,-1,-1,-1,-1,-1,-1,-1,-1,-1],"split_conditions":[-2.02E2,1E0,-1.205E3,2E0,2.2796E4,-2.557E3,1.41E3,-7.01E2,3E0,4.1E1,3.6075E4,1E0,1.7E1,1.408E3,3E0,1.425E1,4E0,-2.37E2,3.8E1,2.048255E-1,5.2E1,2.9492E4,5.8E1,-2.1292558E-1,-1.1901371E-2,7.5E1,6.6E1,-1.97E2,5.075E3,7.806E3,9.71E2,-2.3E2,3E0,-1.9397804E-1,2E0,3E0,2E0,2E0,6.8E1,2E0,6E1,2E0,3.5987E4,3E0,6.9E1,4E0,4.2894512E-2,2E0,-1.2607452E-1,1.3E1,1.55E1,3E0,-7.8647435E-2,1.7986415E-1,2.713E3,2E0,1.6E1,-3.0257496E-1,-1.5661265E-1,-3.5269592E-2,-2.343534E-1,5.5957013E-1,-1.3047086E-1,-2.4310249E-1,8.2341954E-2,5.5403113E-1,8.348959E-2,-1.02136694E-1,2.3566043E-1,-1.8089877E-1,3.3927506E-3,-1.7967653E-1,-4.1298744E-1,1.410119E-1,-1.5739626E-1,8.578154E-2,-5.7162598E-2,5.5526084E-1,2.7500367E-1,-1.2337091E-1,8.8004634E-2,1.3217777E-1,-7.6045856E-2,4.182657E-1,4.9892142E-2,1.9462165E-1,3.555621E-2,-7.3305964E-2,5.123643E-1,4.3837843E-3,-4.956999E-2,4.250311E-1,3.175595E-2,-6.722514E-2,-5.0361097E-1,-1.744356E-2,-3.0685946E-1,6.387491E-2,-5.755798E-2],"split_indices":[18,16,13,7,5,13,11,13,7,8,5,0,12,11,3,12,2,18,8,0,8,5,8,0,0,8,8,18,13,4,13,18,0,0,0,0,15,15,8,14,8,14,5,15,8,7,0,14,0,0,12,7,0,0,13,7,0,0,0,0,0,0,0,0,0,0,0,0,0,0,0,0,0,0,0,0,0,0,0,0,0,0,0,0,0,0,0,0,0,0,0,0,0,0,0,0,0,0,0],"split_type":[0,0,0,0,0,0,0,0,0,0,0,0,0,0,0,0,0,0,0,0,0,0,0,0,0,0,0,0,0,0,0,0,0,0,0,0,0,0,0,0,0,0,0,0,0,0,0,0,0,0,0,0,0,0,0,0,0,0,0,0,0,0,0,0,0,0,0,0,0,0,0,0,0,0,0,0,0,0,0,0,0,0,0,0,0,0,0,0,0,0,0,0,0,0,0,0,0,0,0],"sum_hessian":[2.0387607E3,3.6426755E2,1.6744932E3,1.06393105E2,2.5787445E2,2.0587944E1,1.6539052E3,4.591203E1,6.048108E1,2.7852015E1,2.3002245E2,2.153442E0,1.8434504E1,1.5243823E3,1.2952284E2,3.8538185E1,7.3738422E0,9.851938E0,5.062914E1,1.7919824E0,2.6060032E1,1.01820724E2,1.2820172E2,1.0185506E0,1.1348914E0,1.1721388E1,6.713115E0,1.5138334E3,1.0548936E1,1.2440816E1,1.1708202E2,2.331806E1,1.5220125E1,3.185664E0,4.1881785E0,5.993605E0,3.858333E0,9.998617E0,4.0630524E1,5.1504693E0,2.0909563E1,8.68932E1,1.4927514E1,6.842498E1,5.977674E1,1.0561182E1,1.1602062E0,4.8726068E0,1.8405086E0,1.0456747E1,1.5033767E3,8.663398E0,1.8855382E0,1.2736392E0,1.1167177E1,1.1952473E1,1.05129555E2,1.2249551E1,1.1068508E1,8.190563E0,7.0295625E0,1.1871622E0,3.0010161E0,2.1928174E0,3.8007877E0,2.1952116E0,1.6631215E0,4.7632732E0,5.2353435E0,2.7968227E1,1.2662296E1,3.6499748E0,1.5004942E0,5.2829967E0,1.5626566E1,6.652384E1,2.0369366E1,1.5047975E0,1.3422717E1,5.402702E1,1.4397959E1,3.2778137E1,2.6998604E1,9.479426E0,1.0817552E0,3.2686186E0,1.603988E0,6.897147E0,3.5595999E0,1.4399802E3,6.339644E1,5.7699056E0,2.893492E0,7.078705E0,4.088472E0,4.813311E0,7.139162E0,5.7419502E1,4.771005E1],"tree_param":{"num_deleted":"0","num_feature":"22","num_nodes":"99","size_leaf_vector":"1"}},{"base_weights":[8.4672245E-4,-5.9802955E-1,2.2480434E-3,-4.3164953E-3,-2.2516853E-1,-1.9934574E-1,5.5936854E-3,2.9803348E-1,-5.12043E-1,2.9426733E-1,-1.067045E-3,5.978837E-1,-3.3341727E-1,-8.103794E-1,-8.8501215E-2,2.0070126E-2,5.419201E-1,5.5745235E-3,-2.5626004E-1,1.3819289E-1,1.0770003E0,-1.0900155E0,3.0903837E-1,5.165114E-1,-7.5112534E-1,4.6440417E-1,-1.9115229E-1,8.1014836E-1,-1.9308048E-1,2.974213E-3,8.167326E-1,-3.123797E-1,3.3870262E-1,1.7903638E-1,-1.418246E-1,9.57084E-2,4.6148556E-1,-7.182073E-2,-3.589805E-1,2.643562E-1,-1.6970655E-1,-8.455703E-3,-2.9560134E-1,1.099357E-2,2.1370924E-1,-1.3353057E-1,1.03066824E-1,1.2489462E-1,3.6952895E-1,-2.8294933E-1,2.0027973E-1,1.4368582E-3,-1.971263E-1,6.7561194E-2,2.7638063E-1,-5.961159E-2,-2.9234055E-1],"categories":[],"categories_nodes":[],"categories_segments":[],"categories_sizes":[],"default_left":[0,0,0,0,0,0,0,0,0,0,1,1,0,0,1,1,0,1,1,0,0,0,0,0,0,0,0,0,0,1,1,1,0,0,0,0,0,0,0,0,0,0,0,0,0,0,0,0,0,0,0,0,0,0,0,0,0],"id":22,"left_children":[1,3,5,-1,-1,7,9,11,13,15,17,19,-1,21,23,25,27,29,31,33,35,37,-1,39,41,43,45,47,49,51,53,55,-1,-1,-1,-1,-1,-1,-1,-1,-1,-1,-1,-1,-1,-1,-1,-1,-1,-1,-1,-1,-1,-1,-1,-1,-1],"loss_changes":[1.7024944E0,4.1080415E-1,1.3657718E0,0E0,0E0,5.2941213E0,3.829087E0,6.32453E0,2.5395098E0,3.0389817E0,3.3019714E0,2.4266376E0,0E0,7.3000627E0,4.2618747E0,2.186652E0,4.8013043E0,4.002938E0,4.1944017E0,2.2755747E0,1.459765E0,7.022209E-1,0E0,2.725772E0,8.2212615E-1,7.687317E-1,2.3063996E0,2.3852987E0,5.217652E0,2.272428E0,1.6751862E-1,3.439766E0,0E0,0E0,0E0,0E0,0E0,0E0,0E0,0E0,0E0,0E0,0E0,0E0,0E0,0E0,0E0,0E0,0E0,0E0,0E0,0E0,0E0,0E0,0E0,0E0,0E0],"parents":[2147483647,0,0,1,1,2,2,5,5,6,6,7,7,8,8,9,9,10,10,11,11,13,13,14,14,15,15,16,16,17,17,18,18,19,19,20,20,21,21,23,23,24,24,25,25,26,26,27,27,28,28,29,29,30,30,31,31],"right_children":[2,4,6,-1,-1,8,10,12,14,16,18,20,-1,22,24,26,28,30,32,34,36,38,-1,40,42,44,46,48,50,52,54,56,-1,-1,-1,-1,-1,-1,-1,-1,-1,-1,-1,-1,-1,-1,-1,-1,-1,-1,-1,-1,-1,-1,-1,-1,-1],"split_conditions":[2.2E1,1.304E3,-5.5E2,-4.3164953E-3,-2.2516853E-1,1E0,-3.99E2,1E0,6.1E1,8.546E3,2.8808E4,5.8E1,-3.3341727E-1,3.8826E4,6.9E1,3E1,3.2677E4,1.525E3,8.4E1,-6.29E2,5E0,1E0,3.0903837E-1,1.725E1,9.611E3,1E0,3E0,3E0,1.525E1,1.925E1,3.5E1,7.3E1,3.3870262E-1,1.7903638E-1,-1.418246E-1,9.57084E-2,4.6148556E-1,-7.182073E-2,-3.589805E-1,2.643562E-1,-1.6970655E-1,-8.455703E-3,-2.9560134E-1,1.099357E-2,2.1370924E-1,-1.3353057E-1,1.03066824E-1,1.2489462E-1,3.6952895E-1,-2.8294933E-1,2.0027973E-1,1.4368582E-3,-1.971263E-1,6.7561194E-2,2.7638063E-1,-5.961159E-2,-2.9234055E-1],"split_indices":[8,13,18,0,0,15,18,1,8,4,19,8,0,19,8,8,19,11,8,18,0,20,0,12,4,14,9,7,12,12,8,8,0,0,0,0,0,0,0,0,0,0,0,0,0,0,0,0,0,0,0,0,0,0,0,0,0],"split_type":[0,0,0,0,0,0,0,0,0,0,0,0,0,0,0,0,0,0,0,0,0,0,0,0,0,0,0,0,0,0,0,0,0,0,0,0,0,0,0,0,0,0,0,0,0,0,0,0,0,0,0,0,0,0,0,0,0],"sum_hessian":[2.026066E3,3.735839E0,2.0223302E3,1.0007914E0,2.7350476E0,3.205822E1,1.990272E3,1.23928795E1,1.966534E1,4.3913136E1,1.9463589E3,1.069364E1,1.6992397E0,1.100221E1,8.66313E0,2.1352753E1,2.2560385E1,1.8979418E3,4.841705E1,6.1150026E0,4.5786376E0,9.905055E0,1.0971543E0,4.6436896E0,4.01944E0,6.4937167E0,1.48590355E1,1.6453623E1,6.1067615E0,1.8928776E3,5.0642858E0,4.7276302E1,1.1407472E0,3.5062501E0,2.6087525E0,2.3722389E0,2.2063985E0,1.4644076E0,8.440648E0,3.612206E0,1.0314838E0,1.25769E0,2.7617502E0,2.8041048E0,3.6896122E0,1.0188012E1,4.6710234E0,9.534664E0,6.918958E0,3.2118187E0,2.8949428E0,1.888676E3,4.201527E0,1.2342834E0,3.8300023E0,4.1458405E1,5.8178997E0],"tree_param":{"num_deleted":"0","num_feature":"22","num_nodes":"57","size_leaf_vector":"1"}},{"base_weights":[5.162439E-4,4.29797E-1,-1.0103227E-3,5.8782274E-1,-6.608076E-2,1.8098673E-2,-3.8094234E-2,5.9257306E-2,2.5369242E-1,-6.468953E-3,2.1322595E-1,-1.3227989E-1,4.370618E-2,-4.2769387E-2,6.886951E-2,-1.6744731E-1,1.5676443E-2,5.0651047E-2,3.6608508E-1,-3.5900834E-1,-6.6880964E-2,1.885181E-2,7.130585E-1,-1.09250516E-1,-5.396666E-1,-6.9444277E-3,2.614644E-1,1.328025E-1,-7.5601655E-1,8.3779067E-1,2.4054195E-1,-5.1645774E-1,1.62824E-1,1.2056621E-1,-2.0764278E-1,2.665597E-1,3.8724022E-3,-7.216675E-2,9.669211E-1,-5.510933E-2,1.546909E-1,-2.789181E-1,-2.2897784E-2,9.117162E-3,-3.6269277E-2,1.4506494E-1,-1.4028941E-2,-4.493674E-2,1.176996E-1,-4.6812883E-1,-5.6153752E-2,7.862381E-2,3.766756E-1,-5.3810112E-2,1.4272521E-1,-1.800144E-1,1.5386322E-1,1.9623303E-1,-1.1228914E-1,1.1231853E-2,2.6753354E-1,3.7927233E-2,-1.2882024E-1,6.846777E-2,-1.0762112E-2,2.0838808E-1,-2.1638438E-1,3.9737114E-1,1.2513493E-1],"categories":[],"categories_nodes":[],"categories_segments":[],"categories_sizes":[],"default_left":[0,0,1,0,0,1,0,0,0,0,0,0,0,0,0,1,1,1,1,0,0,0,0,1,0,0,1,0,0,0,0,0,0,1,1,0,0,1,0,0,0,0,0,0,0,0,0,0,0,0,0,0,0,0,0,0,0,0,0,0,0,0,0,0,0,0,0,0,0],"id":23,"left_children":[1,3,5,7,-1,9,11,13,-1,15,17,19,21,-1,-1,23,25,27,29,31,33,35,37,39,41,43,45,47,49,51,53,55,57,59,61,-1,63,65,67,-1,-1,-1,-1,-1,-1,-1,-1,-1,-1,-1,-1,-1,-1,-1,-1,-1,-1,-1,-1,-1,-1,-1,-1,-1,-1,-1,-1,-1,-1],"loss_changes":[1.3262318E0,8.661616E-1,1.4299673E0,7.7318335E-1,0E0,6.385478E0,5.2925916E0,1.3777047E-1,0E0,4.2227335E0,3.6830826E0,4.7090864E0,6.1087284E0,0E0,0E0,3.0439496E0,5.7927256E0,4.9607496E0,4.335248E0,5.9366446E0,6.5942774E0,4.632348E0,2.6907296E0,5.915822E0,3.383532E0,4.065545E0,6.0330873E0,5.0030036E0,2.878181E0,3.4474297E0,6.1998367E0,5.036709E0,4.802294E0,6.852595E0,1.0615484E1,0E0,3.1366086E0,2.563055E0,1.4149275E0,0E0,0E0,0E0,0E0,0E0,0E0,0E0,0E0,0E0,0E0,0E0,0E0,0E0,0E0,0E0,0E0,0E0,0E0,0E0,0E0,0E0,0E0,0E0,0E0,0E0,0E0,0E0,0E0,0E0,0E0],"parents":[2147483647,0,0,1,1,2,2,3,3,5,5,6,6,7,7,9,9,10,10,11,11,12,12,15,15,16,16,17,17,18,18,19,19,20,20,21,21,22,22,23,23,24,24,25,25,26,26,27,27,28,28,29,29,30,30,31,31,32,32,33,33,34,34,36,36,37,37,38,38],"right_children":[2,4,6,8,-1,10,12,14,-1,16,18,20,22,-1,-1,24,26,28,30,32,34,36,38,40,42,44,46,48,50,52,54,56,58,60,62,-1,64,66,68,-1,-1,-1,-1,-1,-1,-1,-1,-1,-1,-1,-1,-1,-1,-1,-1,-1,-1,-1,-1,-1,-1,-1,-1,-1,-1,-1,-1,-1,-1],"split_conditions":[4.06E2,3E0,-1.5E1,5.4E1,-6.608076E-2,-7.1E1,7.3E1,3.73E2,2.5369242E-1,1.25E1,9E0,4.5E1,8E0,-4.2769387E-2,6.886951E-2,7.2E1,1.204E3,7.2E1,5.1E1,8E0,1E1,2.3068E4,1E0,6.7E1,3E0,2E0,5.9E1,4.8E1,7.4E1,2E0,3E0,3E0,1.125E1,7E1,5.9E1,2.665597E-1,8.8E1,5.4E1,7.244E3,-5.510933E-2,1.546909E-1,-2.789181E-1,-2.2897784E-2,9.117162E-3,-3.6269277E-2,1.4506494E-1,-1.4028941E-2,-4.493674E-2,1.176996E-1,-4.6812883E-1,-5.6153752E-2,7.862381E-2,3.766756E-1,-5.3810112E-2,1.4272521E-1,-1.800144E-1,1.5386322E-1,1.9623303E-1,-1.1228914E-1,1.1231853E-2,2.6753354E-1,3.7927233E-2,-1.2882024E-1,6.846777E-2,-1.0762112E-2,2.0838808E-1,-2.1638438E-1,3.9737114E-1,1.2513493E-1],"split_indices":[11,9,18,8,0,18,18,18,0,12,0,8,3,0,0,8,13,8,8,0,0,5,0,8,7,14,8,8,8,7,9,15,12,8,8,0,18,8,13,0,0,0,0,0,0,0,0,0,0,0,0,0,0,0,0,0,0,0,0,0,0,0,0,0,0,0,0,0,0],"split_type":[0,0,0,0,0,0,0,0,0,0,0,0,0,0,0,0,0,0,0,0,0,0,0,0,0,0,0,0,0,0,0,0,0,0,0,0,0,0,0,0,0,0,0,0,0,0,0,0,0,0,0,0,0,0,0,0,0,0,0,0,0,0,0,0,0,0,0,0,0],"sum_hessian":[2.0221125E3,6.1712484E0,2.0159413E3,5.04146E0,1.1297884E0,1.3307368E3,6.852044E2,2.0560668E0,2.9853935E0,1.1827844E3,1.479524E2,3.182043E2,3.670001E2,1.0155255E0,1.0405413E0,1.4224222E2,1.0405422E3,7.234281E1,7.560958E1,7.023172E1,2.479726E2,3.548519E2,1.2148185E1,1.24128174E2,1.8114035E1,9.537376E2,8.6804634E1,6.64145E1,5.928319E0,1.4700771E1,6.0908813E1,5.396076E1,1.627096E1,1.06411674E2,1.4156091E2,5.0210466E0,3.4983084E2,3.1428194E0,9.005365E0,1.11545044E2,1.258313E1,9.288227E0,8.825808E0,7.18926E2,2.3481155E2,5.012183E1,3.6682804E1,3.1997019E1,3.4417477E1,1.7335932E0,4.1947255E0,6.866368E0,7.8344035E0,2.19535E1,3.895531E1,5.0293568E1,3.6671891E0,8.384313E0,7.886647E0,9.70044E1,9.407273E0,5.6650215E1,8.49107E1,5.1934708E1,2.9789615E2,1.4086629E0,1.7341565E0,4.602356E0,4.4030094E0],"tree_param":{"num_deleted":"0","num_feature":"22","num_nodes":"69","size_leaf_vector":"1"}},{"base_weights":[5.754943E-4,1.0503143E-2,-6.4265616E-2,-1.5754681E-2,7.235269E-2,-5.095982E-2,-4.2255974E-1,4.5545787E-2,-4.9412884E-2,2.5187713E-1,6.411972E-2,1.3886832E-1,-1.23041354E-1,-2.2981834E-2,3.2960787E-1,5.1324446E-2,-9.2643246E-2,-4.3273395E-1,7.9782724E-2,9.248413E-1,6.5948434E-2,-3.6527646E-1,2.9181425E-2,-9.034174E-2,2.1983543E-1,-4.5629617E-2,6.245098E-1,-1.2607422E-2,9.450635E-1,4.372158E-2,-1.6158812E-1,-6.153749E-1,2.1714303E-1,-7.661497E-3,1.4954066E-1,1.2258286E-2,1.1159697E0,-7.8659457E-1,1.325808E-1,-5.847457E-1,7.42239E-2,2.9565892E-1,-2.1858934E-1,-3.5844512E-2,1.4457232E-1,1.0324452E-1,-1.04854E-1,9.9991225E-2,-1.07109934E-1,-5.126225E-2,2.1797676E-1,-3.0987196E-2,6.866401E-2,6.9020025E-2,3.292926E-1,2.4695393E-2,-3.4561273E-1,-5.199631E-2,1.6879953E-1,9.925469E-2,-2.4055912E-1,1.5783337E-1,-6.966937E-2,9.172571E-2,-2.0403065E-2,5.6898694E-2,-6.6854835E-2,7.52002E-2,3.8135228E-1,-3.6622682E-1,1.3337208E-1,-1.0658753E-1,7.301824E-2,9.965968E-3,-2.2151951E-1,9.349088E-2,-1.8441206E-1,-2.2357807E-1,9.906553E-2,-3.024975E-1,-3.337028E-2],"categories":[],"categories_nodes":[],"categories_segments":[],"categories_sizes":[],"default_left":[0,0,1,0,0,0,0,1,0,0,0,0,0,0,0,0,0,0,0,0,1,0,1,1,1,0,0,0,0,0,0,0,0,1,1,0,0,0,0,1,0,0,0,0,0,0,0,0,0,0,0,0,0,0,0,0,0,0,0,0,0,0,0,0,0,0,0,0,0,0,0,0,0,0,0,0,0,0,0,0,0],"id":24,"left_children":[1,3,5,7,9,11,-1,13,15,-1,17,19,21,23,25,27,29,31,33,35,37,39,41,43,45,47,49,51,53,55,57,59,61,63,65,-1,67,69,71,73,75,77,79,-1,-1,-1,-1,-1,-1,-1,-1,-1,-1,-1,-1,-1,-1,-1,-1,-1,-1,-1,-1,-1,-1,-1,-1,-1,-1,-1,-1,-1,-1,-1,-1,-1,-1,-1,-1,-1,-1],"loss_changes":[1.2989553E0,2.8430517E0,4.7206078E0,2.538457E0,3.2414842E0,3.6615005E0,0E0,8.499056E0,3.4625618E0,0E0,4.059737E0,4.1670933E0,7.148389E0,5.7833147E0,9.417471E0,1.3671702E1,5.23379E0,2.028312E0,3.0649512E0,9.996195E-1,4.000411E0,7.2558937E0,7.9743366E0,4.6692715E0,5.5570188E0,4.634856E0,3.9870434E0,4.9310074E0,1.4899654E0,8.747246E0,3.237051E0,2.5101547E0,7.1103024E-1,4.2543697E0,4.217317E0,0E0,3.5938263E-1,3.2773983E0,3.5718617E0,4.7705574E0,